/**
 Generated by Multiple Back-Propagation Version 2.2.5
 Multiple Back-Propagation can be freely obtained at http://dit.ipg.pt/MBP
*/

#include <math.h>
/**
 inputs  - should be an array of 37 element(s), containing the network input(s).
 outputs - should be an array of 35 element(s), that will contain the network output(s).
 Note : The array inputs will also be changed.Its values will be rescaled between -1 and 1.
*/
void 1(double * inputs, double * outputs) {
	double mainWeights[] = {0.323022538389204, 0.935787413654866, 0.902702424357681, -0.934002228198698, 0.221703086330854, -0.715729709075190, -0.557259175839175, -0.874215973889848, 0.421771376963530, 0.323302877984759, -0.702371780204730, -0.106367392634626, -0.925367196928030, -0.917835600519524, -0.789264095028732, 0.774394808266931, -0.658666463004079, 0.929337795754473, -1.041036812425844, 0.700980417113210, -0.062560290918241, 0.366409565089736, 0.563546545580853, -0.242901800892720, 0.402883472246496, -0.212436741622407, 0.705909704577542, -0.288055991691929, -0.455870086060618, -0.761397066443092, -0.971728364622875, 0.551455961366763, -0.834701128851908, 0.392625409258271, -0.078467495811854, 0.478005031789483, -0.488247322241109, -0.320505600650383, -0.255542908508409, -0.386415097755971, -0.160724361106467, 0.896549349752143, 0.279228543438286, 0.455928523453674, -0.769553128154769, 0.898071862979109, -0.073965417572591, 0.880971711930907, -0.970046279435906, 0.855571070431738, 0.733091039300396, -0.481737124618643, 0.449031208745503, -0.114149770828683, -0.148030123943582, 0.848242471535514, 0.450573598676151, 0.205543158262505, 0.530571436460374, -0.208720306536461, 0.038370457753175, 0.086407652660383, 0.560803890342210, -0.639937994694606, -0.018302534001657, 0.684088027743408, 0.152736732346644, -0.182404201211605, 0.476545770295214, -0.128165995799537, 0.099394693884627, 0.473626353837369, 0.655766087566255, -0.548298449722912, -0.193327237071703, 0.826134252262661, -1.107333898873267, 0.262529721311600, -0.692749175674060, -0.256796838042742, -0.726506688946458, -0.205617879892088, 0.762401648369421, -0.822744913069502, -0.362242954071478, 0.366412591562026, -0.192504692136979, -0.541159826693941, 0.362359469875425, -0.599449488845823, -1.045466143305027, 0.271198812376944, -0.826153297033659, 0.478159171593079, 0.163812758483778, -0.159812096265168, 0.593088658683414, -0.426801089625049, -0.025612495054500, 0.051929594408603, -0.750369987255988, -0.291309376508570, -0.341424363173156, -0.365775080370338, 0.241605052299878, -0.032365072814018, -0.462038709039893, -0.519615164516647, -0.256506567953966, -0.442737720622934, -0.638361132614410, 1.099271449618340, -1.073064195746508, 0.543704254800655, 0.430004665529997, 0.070708834663574, 0.456152099679632, -0.530038864177661, -0.282776530445215, 1.319596277018296, -0.407495798597659, -0.754807529896237, -0.571573672897562, -0.767355246062467, 0.713215794185080, -0.098091239950259, 0.109206140197330, -0.641676531667748, 0.413547612501011, 0.480636162180163, -0.970709814101975, -0.659152460545486, -0.534945662455106, 0.762458569779777, 0.467720731595478, 0.216401214720262, 0.216988991310095, -0.904433918913102, 0.106014404067971, 0.021299037300565, 0.295348221817304, 0.286009853674049, 0.830070181906622, 0.487455661596064, 0.863140175364307, 0.960311009961837, -0.702925173433086, -0.776731882261537, 0.249353056708877, 0.161174001211808, 0.835719885629158, 0.234559542486738, 0.813784868351777, -0.868493699141406, 0.287216247984579, -0.480022915452631, -0.253619187044541, -0.106916583428207, 0.433335746031681, -1.005354325448192, 0.891920611001177, 0.540032340245031, 0.700373534680374, 0.764318782228729, -0.702472383386436, 0.682283091383320, -0.663785481016982, 0.295395029610118, 0.293572881342658, 0.930052551018752, 0.072867189172318, -0.847712260516817, 0.125190257178015, 0.250719079306290, 0.267090935106683, -1.124600426035755, -0.303676328162520, 0.360019115924328, -0.949798101270489, 0.174092004715878, -0.348935129721336, -0.267540486909087, -0.962437490950055, 0.101426018344812, 0.612071869970639, -0.289697745607435, 0.590655664590143, -1.137639657333682, -0.545686809791187, -0.291896764213867, -0.506225205086748, -0.560223145734923, -0.122911827591220, 0.184529189298632, -0.600358218118756, 0.648187206043004, 0.408313715794947, -0.390230504731926, 0.358032508938918, 0.437919631900457, -0.069316038986008, -0.711716811917748, -0.195870253877125, -0.700903068449246, 0.532534013585682, -0.109091523205930, 0.484518170403744, 0.904467214440561, 0.952616119726748, 0.896931872124031, -0.246386567269546, 0.444786418297498, 0.971638114597826, -0.060778061679194, -0.582150161225443, -0.867220455903755, -0.290645455769638, -0.745727718853385, 0.784875537795100, -0.822853269198115, 0.311432890263801, -0.519859856591783, 0.569855367725079, 0.426396357193125, 0.552271341802417, 0.298057056055290, 0.720004635602273, -0.449546375640278, 0.114741376759642, 0.560913244221048, -0.418536566990258, 0.059680599959453, -0.302576202144643, -0.281810177100438, -0.247348590217697, -0.804504810331724, 0.872382146044912, -0.351299664569524, 0.009682030792453, 0.464571780625097, 0.774545272045059, 0.010949419162027, 0.144819086673819, 0.662908224502156, 0.789472825785193, -0.887562865582749, 0.802605470694470, -0.365512180256375, 0.419710968074234, -0.481720305324098, -0.685347780219690, -0.798870562570725, -0.780229863515315, 0.441638167017090, 0.159107146035191, -0.888381678375339, 1.280697391591350, 0.013468049583711, 0.810940463647202, 0.833126176717836, 0.856889289142822, 0.169151330680205, 0.723618269041706, 0.210292323447011, 0.274994833557996, 0.703935111872908, 0.590518746198880, -0.400184039568461, 0.519641196562430, -0.671791711608321, 0.816893731943704, 0.740057302660075, 0.379051975729332, -0.657988787813365, 0.736408256765574, 0.241478422719884, 0.379108620065162, -0.086178274852385, 0.659030562956020, -0.596878993777294, -0.917088940827926, 0.152349013150982, -0.142426801280069, -0.041878245953424, -0.672639117220935, 0.687355477498024, 0.028025449294651, -0.531976853711145, -0.736775759451948, -0.271149600478357, -0.048301720761176, -0.827453172595797, -0.143090191059091, -1.015540422635003, 0.255284380941590, 0.520127315578909, 0.594481021504310, 0.015368588464448, -0.202959265159913, -0.733498272467050, -0.061412718698428, 0.145849875300135, 0.806729043969020, -1.000822172362501, 0.559689106493198, -0.128489637411906, -0.260429034647128, 0.433993305240695, 0.416192199593006, 0.255041634400991, -0.637490386941508, 0.140737686335916, -0.714723028542182, 0.077353819257680, 0.603458300921910, -0.092684285447904, 0.599979737008074, 0.396225862914025, 0.357954787748762, 0.023947943121197, -0.483565640299877, -0.313646211896552, -0.538014010285987, -0.634802357401417, 1.008501335717437, -0.127472022084609, -0.322226321223541, 0.298932553327931, 0.909640623789036, 0.789520620784222, -0.273594981153384, -0.889869424083004, -1.205140335712169, 0.678121925035401, -1.029112506830786, -0.290489323457996, -1.028775524191210, 0.601430045879377, -0.824671296619629, -0.152108547192458, -0.011500853366271, -0.166141575232453, -0.355065451100736, -0.263318846481671, -0.004145375329228, 0.950257365783345, 0.721661937984475, 0.436955211081229, -0.567385743428648, 0.699091743541000, 1.001007616064872, -0.426405839417124, -1.061606915256912, 0.381606249562585, 0.465148904490772, 0.364205819537474, 0.338368941902661, -0.002033252846161, 0.393275485560114, -0.012608692991240, 0.036955081312603, -0.839412391768490, 0.303821220191234, -0.764521822835328, 0.129421832666302, -0.579490986024379, 0.390501637045374, 0.703877877625106, -0.664298496649337, -0.390284364925419, 0.198285751582925, 0.785090154530315, 0.792119867226331, 0.395557524970399, 0.620535300457222, 0.523711170881355, 0.485784823563886, -0.054936116028178, 0.478385429078131, -0.370121812894592, 0.890694347421998, -0.911809393058704, -0.640982667468490, 0.573126742047984, 0.065334901944415, 0.470520432284125, 0.649928147873871, 0.653434415665621, -0.286322313694062, 0.600539553438743, -0.431634532295488, 0.411189884877616, 0.085995172898863, -0.109485954511341, -0.436347706282252, 0.307761127227657, -0.531831130695822, -0.450990901593526, 0.458810598637368, 0.273441939637827, 0.073359967670028, -1.020769096171941, -0.145657441542889, -0.492798267521726, -0.766756399850605, 0.663029965561363, -0.184850979180703, 0.215451873595517, -0.944218559061742, 0.359684080960204, -0.537195696633962, -1.246299879400080, 0.718197726223984, -1.057967006409947, -0.128690811056098, -0.293802296071636, -0.278791591215251, 0.049541863732345, -0.388317366265507, 0.253917739537640, 0.508805623138104, 1.026141743578377, -0.741186636242598, -0.164793413126788, 0.024631301517648, 0.718543958846947, -0.066129110714588, -1.040055276058177, -0.100287255013071, -0.620011245896388, -0.685449056746060, -0.516132396059256, 0.658072830830534, 0.704996706637378, 0.047107341405061, 0.543985160139218, -0.527149351477401, -0.236397064517831, -0.164011508851630, 0.315252708868621, 0.350636247929875, 0.641099004899283, -0.082408871142852, -0.575359960547993, -0.339292612151259, -0.470853592097173, 0.111556789976928, 0.567734706562449, 0.619610053279900, -0.087946610271712, -0.902632090546467, -0.198143962142410, -0.549990410896914, 0.670229580224281, -0.069616064603672, 0.307177731324638, 0.366604698468670, -0.162205489210749, -0.503580380602218, -0.680231613087248, 0.568801637807015, 0.114069433598823, -0.136486686938126, 0.672245142207288, 0.081152863400865, -0.655976365637423, -0.771605718131875, 0.922020727429948, -0.161642849210099, -0.739081965197906, 0.822848792489220, 0.657819566259838, 0.884253999163371, -1.226192703598607, -0.442878375649318, -0.711919436341399, 0.277124409362401, 0.707819762199948, 0.822462464113131, -0.460848323128601, 0.635874323065345, 0.030914622028482, 0.042421026685070, 0.388723611692447, -0.681124793834289, -0.211187602120540, -0.826323584681357, -0.914780094777975, -1.075838975024314, 0.752646822270398, -0.306230656758095, 0.111618550367490, -0.634065387339742, -0.981529252136780, 0.634844313672494, -0.904583428473426, -0.360981911952247, -0.753097374406809, -0.315007188733461, -0.502753677873406, -0.298713279413944, -0.052393800863826, -0.693686446219250, 0.462296471599628, -0.700120606884510, -0.029709687878827, -0.374143099413580, 0.219520114793043, -0.856830909295578, 0.258263150609415, -0.080788744235922, -1.025913628490541, 0.853274512061634, -0.534573365150009, 0.121323990545831, -0.768726804424478, 0.103928888102177, -0.262696902993130, 0.235265846653902, 0.664484119526406, 0.921159172264556, -0.168777216811223, -0.774009595995796, -0.030190634428803, 0.492990350121885, -0.445007047481953, -0.329713706252666, 0.899740255754094, -0.865141766997620, 0.545251412682907, -1.033103764805176, -0.686998924496094, -0.587516985089607, 0.823296929411883, 0.200810963718032, -0.001760003034506, 0.305776303174968, -0.439171182997607, -0.670415477910008, 0.503142234191581, -0.057835526933929, -0.587807771158148, 0.290830810590880, -0.648873895115862, -0.751889552101815, -1.034071372132328, 0.844649817221956, 0.146692217093299, -0.681847869592607, -0.753149816114395, -0.518843383594236, 0.159823143739185, 0.242001658043954, -0.285458759429083, 0.718320896699340, 0.383616347358875, -0.781865837804056, -0.274039661288638, -0.709661487960426, 0.544607960267574, -0.920739878507279, -0.031161721378014, 0.953322708550522, -0.646718564300437, 0.524904928177480, -0.036477428003613, -0.477423193215853, -0.448432801475064, -0.284575208522074, 0.034872452999970, -0.556913671651878, -0.714125184441662, 0.271200312011894, -0.219278854303816, -0.713098482251154, 0.631690735030752, 0.709199879234723, -0.959951814735945, -0.266941690503571, -0.764452540375121, -0.749550763929041, 0.615505810694021, 0.775403655192013, -0.768382936642210, 1.064379333885838, -0.888363166439619, 0.829286404714592, -0.371321946204079, -0.090242362361365, 0.950248407451638, 0.081522451166365, 0.644633224798273, -0.753447827192051, 0.487206575593555, 0.587461267158916, 0.749828089120777, 0.687179992910259, -0.619295049612158, -0.327973270060733, -0.362388534811364, 0.232803204814847, -0.510362174886941, -0.893860170799904, -0.614321266723613, 0.530250394560904, 1.122429615502283, -0.715938321570856, 0.199693190046699, 0.437193150812023, -1.001667278941710, -0.359308250353652, -0.016351585311599, -0.393215360401606, 0.084003022106605, -0.771927035333583, 0.283781025257062, -0.996922552445861, 0.444290807207852, -0.277057237213915, -0.696977417675829, -0.824158461960556, 0.511276124577812, -0.815286769559093, -0.594533478888437, 0.014185297479537, -0.275079338091781, -0.622956467226343, -1.048348832193475, 0.236239006004530, 0.884182531578713, 0.930624044242680, 0.080451198458320, 0.836652598429515, 0.044236962575018, 0.069882109928466, 0.011481103580329, 0.212230080451493, 0.120559264789232, 0.590968387492440, -0.475107239781543, -0.915448262221440, 0.166997764186365, 0.122866803204446, 0.432599447890108, 0.372134033276258, -0.623226713508921, 0.015828190420280, -0.541406688279001, -0.526660682264778, 0.794062580276434, -0.016594412134001, 0.282282607044409, -0.705379598211597, 0.684667992240365, -0.093877049591980, 0.826184458186841, 0.504110989143742, -0.678085098919717, 0.102799986879050, -0.325444112445405, 0.679949717251202, 0.799304836186564, -0.810608874388402, 1.043244410337641, 0.875289034791673, -0.603530329832550, 0.518586028275749, 0.849415630638018, -0.433840200716690, -0.084997386802433, 0.862190509085687, 0.689101374177636, -0.814316151957707, -0.699907947073795, -0.542573126501363, -0.847512996194901, -1.083942647939396, -0.483242110470156, 0.826362003606148, -0.804668329542666, -0.088420986282319, -0.192649711411948, 0.793999959177111, 0.668329143349356, -0.780307570424273, 0.089407606255525, -0.600433839546155, -0.481133303228669, 0.813115462193603, 0.446360938859606, -0.947214491382354, -0.472456350727877, 0.346208751647165, -0.296739960500464, 0.835827152907996, -0.070232728431628, 0.994164734683428, 0.416055734536379, -0.767433747234914, 0.671125767791624, -0.164796446782698, 0.091743003197684, 0.840532190360008, 0.150062953768864, -0.310489309527343, 0.912997352086569, 0.770219424108004, -0.396567701035456, 0.830963278621117, 0.630354838012169, 0.875988477475959, 1.025088989923225, 1.074540539558454, -0.870117382410972, 0.956599777319274, 0.957095198670196, -0.540592242794979, 0.569214390291356, -0.816962300443772, -0.591896730025290, 0.830067276225562, 0.183167306225549, 0.264869315788161, -0.328733170902734, -0.519257170543365, 0.552099559933106, -0.357742548500143, -0.627765724967451, -0.485789289018528, -0.062793465223081, 0.781494726365277, -0.398971449938546, 0.878833010584878, -0.106489814489830, 0.474464299900426, 1.182639311816459, -0.502471565829839, -1.016890585263719, 0.673513463282029, 0.561238686215634, -0.898794012421482, 0.412733183650924, 0.148186864322974, 0.507007624027740, -1.068835860821536, -0.021635750441287, 1.128197870374924, -0.783659111414416, 0.575655982624100, 0.289127251545021, 0.377787011674907, -0.356455215645889, 0.701460893578138, -0.335625973158891, -0.767623433629237, -0.486480580962951, -0.345691447356007, 0.743681917070280, 0.411719639239444, 0.364244108353340, -0.080434273918551, -0.393821780617625, -0.546370280756907, -0.460309416103385, 0.027690290475100, -0.779731607391058, -0.348799649982143, 0.011363283846072, -0.740979256775416, 0.242303264348636, -0.515316390501722, -0.877121044905068, -0.422254614492716, 0.894509837294325, 0.137884045563133, -0.869039618304474, 0.955157562208642, -0.910298970410289, -0.751626865494456, 0.604111254323897, 0.617359937225648, 0.291934385168806, 0.740937815019683, -0.987254956457956, 0.830084254913727, 0.996466547346400, -0.188599729854163, -0.311129112821519, 0.888080087899049, 0.761407018555468, 0.860750679060841, 0.325961032160513, 0.923942822273325, 1.038055590777566, 0.669279749606248, -0.691323698048709, -0.062045989260387, -0.584858602535369, -0.691969066732536, -0.628446381284419, 0.579014594764581, -0.370519559883239, -0.514727356385906, 0.541668546088040, -0.584373364516320, -0.538071798727465, -0.560561167675355, -0.182618406836993, 0.728860347138799, -0.112515243274309, 0.480168821628232, -0.574693851169169, -0.744799247066032, -0.434758465928501, 0.426730668294161, -0.339216403020893, -0.672523141309010, -0.018238515144701, 0.955715165884169, 0.651885788850019, -0.524988150375838, 0.652316975011596, 0.965883000586833, 0.763500047727573, 0.630697953682611, -0.689079731580737, -0.068389024177846, 0.387136208923304, -0.249523389277723, -0.934390964322149, -0.481773417483254, 0.295325458225190, 0.531163199209175, 0.906668750195847, -0.074568558140058, -0.562907680243710, -0.341791767187969, 0.594473176522049, 0.275116109090447, 0.616998189736842, 0.201572844488081, -0.943569034833289, 0.201487773631609, -0.654347326862550, 0.441290887897865, 0.626010963188518, 0.018110015522940, -0.080887983675083, -0.170623865575783, -0.532230057309189, -0.334025149746063, -0.748811347800789, 0.531089128396621, -0.675886879824228, -0.510031008261829, -0.696016380414732, -0.857179984417207, 0.405745721782870, -0.116315508701307, -0.124192614685915, 0.885096834327246, 0.606210768389087, 0.750125931454261, 0.823167500502442, 0.545712278241743, -0.198110063203738, -0.596861651723372, 0.643844546905677, 0.718292240673964, 0.580719696758454, -0.173275376355611, 0.215752087248386, -0.560812098732319, 0.504296240711559, -0.143395961745748, -0.003058167307012, 0.968961761182964, 0.294213354840071, 0.835372982948591, 0.455333794468456, -0.526956366776491, 0.868612704462662, 0.171932029821579, -0.942822258862364, 0.582211347765891, -0.435376024613266, -0.863828428687082, -0.535737568808433, 0.176693152771861, 0.876333029444926, 0.234154550775890, -0.634597379432288, 0.209197655824012, 0.426175793899067, -0.010657256042370, -0.911029993150200, -0.905955780152931, 0.342317323787123, -0.112138189235995, 0.152445487545601, -0.102063935451664, 0.894205733765968, -0.745341814081446, -0.620953395741544, -0.577699066865572, 0.336452999083381, -0.986508003781742, -0.487901003849362, 0.430910531280945, -0.128541912750296, -0.079927094818709, 0.432026581514763, -0.631082181409526, 0.355890370469856, 0.773873049356939, 0.569498434991975, 0.697052515048885, -0.058344984093709, -0.407591589307387, -0.810887553126628, 0.529951543475932, 0.564663701865460, 0.247351748887424, -0.102115443253238, -0.307186093511822, 0.315360670383375, 0.693353353965450, 0.380711477901926, -0.506549305322746, -0.799573776532128, 0.051468281013775, -0.234473717149799, -0.477616286788380, 0.576094358244813, -0.034150649067771, 0.436908948884026, -0.213546533843814, -0.094461330049235, 0.215839171032798, 0.194682073353033, -0.282984375292671, 0.980654284079946, -0.006110182570184, 0.618060143790297, -0.845455658412586, 0.439345665959421, 0.217729772029454, 0.396231572500253, -0.731905961598281, 0.996713558257131, -0.411824929166870, -0.152914592814211, 0.320417509318195, 0.321307196168487, -0.502942686515601, -0.573993280777248, -0.063828536287935, -0.388233276981210, 0.417524526195171, -0.152688044433182, 0.052570745742401, -0.056150660895496, 0.424396379281652, 0.069201782936859, 0.402023202965614, 0.458169553098494, 0.070587674480683, -0.334713524907082, -1.022048145465034, 1.077579953402239, 0.882982722147370, 0.588942439190342, 0.402927983474940, 0.430287892645393, -0.779714220330299, -0.608948398508920, -0.659935983674512, -0.199036458837639, 0.587323375891285, 1.248178513695981, 0.656930251402653, -0.503384271259593, 0.177518783407439, 0.319345526110757, -0.139223905293501, 0.257321141033653, -0.507768124985584, -0.561050568252193, -0.383378670006561, -0.674570989368363, -0.234850543894923, -0.411225106243824, -0.094071304941772, -0.871216566869382, 0.553336878452962, -0.502507892773959, -0.449748654124268, -0.614617901751779, 0.189291762528560, -1.145546830004377, 0.687809978368881, 0.240972810256153, -0.011999459862826, 0.589706148603015, 0.405221288555247, 0.116288364717386, 0.700911604804728, -0.002945481661135, -0.211296518226824, 0.314288966864018, 0.242589709105792, 0.773391091837197, 0.119838099205803, 0.123602069660538, 0.536273807149414, -0.958825965520511, 0.234075697689171, 0.123830175589141, -0.870020417632274, -0.513805203817945, -1.036984663626056, -0.905585036205241, 0.924795321113262, 1.184862019981241, -0.151924654932546, -0.223211663022365, -0.991849147615066, 1.076904595580862, 0.773241962350089, -0.142868559425427, 0.213297364155224, 0.836000573137932, 0.874748826157872, -0.659924339537818, 1.064541939458774, 0.246744833535232, 0.524226255577521, 0.404682893339862, -0.156695105535846, -0.659618417702529, -0.056198428226030, 0.544467981989886, 0.167911689136625, -0.382780084058030, 0.005447826156004, 0.805558947447395, 0.616392873273544, 0.677350729270606, -0.240670173051119, -0.633979807164629, 0.167641216787876, 0.035193785685789, -0.119211641060374, -0.507823331470943, 0.990784980438369, -0.690455671547993, 0.320277675873368, 0.427298279329294, 0.534679790649299, 1.236223683779029, 0.729216167617880, -0.633130208283889, -0.334782546197513, 0.091689251602596, 0.494825603149536, -0.644828012453896, 0.262299508651974, 0.190652056460814, -0.580748706519885, -0.877745020765861, 0.714597072541418, -1.076827884658682, 0.395277487192600, -0.851946676901923, 0.851123345595904, 0.445109810544972, -0.828737511420279, 0.272285599628108, 0.926898529163361, -0.492944330871156, -0.493792436236024, -0.475897288453128, 0.880776962903663, -0.369287342875084, -0.216219621867535, -0.781994926942857, 0.118035357905527, 0.102126520723307, 0.334031380804446, 0.316382247646310, 0.304669021132650, 0.452462011863246, -0.885365899917185, -0.299356387898074, 0.696579946551558, 0.083957085374331, 0.150226234921155, 0.008545266367275, -0.330619447651446, 0.415875156350752, -0.753682076762948, 0.172714875139498, 0.584926081256638, -0.634218849632214, -0.923171488873302, -0.200393987844965, -0.070581647424854, -0.844955140868075, 0.142546762742109, -0.401338592171536, -0.824531733439581, -1.104688104028489, 0.524683568745942, -0.306363128924346, -0.580682331333119, -0.443110624387148, -0.008285787446493, 0.153820231488289, -0.484360871937850, 0.867381969368469, 0.754531589542724, -0.138934775352986, 0.474974989906939, 0.691176938553545, 0.468756573323874, -0.439974509805694, 0.328052929396748, -0.376325358657494, 0.173691760586151, -1.166765286599841, -0.163081166566962, -0.413190104935485, -0.346349509864659, -0.806028036479638, -1.182814857680680, -0.060056886010475, -1.009390222886430, -0.619836192823505, 0.069705486531893, 0.130302389825290, 0.089821251224407, -0.936430960874938, -0.743494386420158, -0.781520991721954, 0.687375961772883, 0.669313833826202, -1.057075157127591, -1.023441136923610, 0.380600497554991, 0.209837297520527, -0.137703546659652, 0.589182839903700, 0.877962827419949, -0.501722224698441, -0.240645518426229, -0.548845477759005, -0.286529215234703, -0.647130239018363, 0.416507132434952, -0.281497190173274, -0.944935792963594, -0.003084193878507, -0.499582583593556, 0.097347783591978, 0.158987550068670, 0.032011666393606, 1.206524509970558, 1.073730898975805, -0.828592541419301, -0.061326227790038, 0.310011470741199, -0.405438702210507, -0.942116770181337, 0.765328310834395, -0.700158736934046, -0.239920147686053, 0.352077820985904, 0.071693279375667, -0.277776069140023, 0.000810225835765, -0.745133921870817, -0.446396142333864, -0.038456947081191, -0.279595342568708, 0.131183488023233, -0.741543760615847, -0.702002068943114, 0.637044681796478, -0.112392806636283, 0.221094745442993, -0.753840184801227, -0.404972457386112, -0.027462955034921, -0.069243365269851, -0.749530181455344, 0.167884924955389, -0.824105624417976, 0.653527917713101, 0.159604387313734, 0.378283196699325, 0.912546270770723, 0.029717479686613, -0.428575183761658, -0.202067463212569, -0.484296498392674, -0.352450335166407, -0.573700254797537, 0.193923488095443, -0.191704903184179, -0.111759309613725, -0.397283636622169, 0.235847924280296, 0.838921982176879, 0.875112255216729, -0.818638929258460, -0.226269079989873, -0.016191145788712, -0.012472374130298, -0.164374644454537, 0.583755830873299, -0.413146934219543, 0.443381629163842, 0.789112340854274, 0.191708893426650, -0.084270942946484, 0.739039814360056, -0.398861775333890, 0.965551151805756, -0.736666358173951, 0.536784253694328, -0.090406348698117, -0.381197155277568, -0.652547085884170, 0.210530757162883, 0.006393764578223, 0.096119194806804, 0.670397669900242, -0.122135112507381, 0.272871555942714, 0.756622454225823, 0.338788800653320, 0.622799921101159, 0.526122367050392, 0.959950241767674, 0.973257009598637, 0.154126503502824, 0.988038220946683, 0.556671866896293, -0.470051321661251, -0.770175518148722, 1.028072336789928, 0.560200496480650, -0.786130107064643, -0.864955741747235, 0.522538983970517, -0.239070306870271, -0.657905050450183, -0.401701159933124, 0.616321904805468, 0.827264713702435, -0.891583832184045, -0.645980748433539, -0.183336090271207, 0.956590104150400, -0.680360783600323, -0.315740019997945, -0.520690172388663, -0.443180863251103, -0.702202261641124, 0.215979450044727, -0.303823478506837, -0.051499501338969, 0.441266318784862, -0.724756082472627, 0.398053923650509, 0.660100241468134, 0.706550514710672, -0.981646318789533, 0.010533084203066, -0.630929304594764, 0.168014519959395, -0.333739586454599, -0.919608372517970, -0.346676106236871, -0.577176309842471, -0.617684922223078, 0.220732352882113, 0.425259175495457, 0.670685050434280, -1.345201911296770, -0.178224273064963, 0.033099964431092, 0.464267216822675, 0.452376522523028, 0.853313049329939, 0.127341229981700, -0.576589399312387, -1.094364469920413, -0.670708913752440, -0.856992802643292, 0.796541520381566, 0.428630842550035, -0.425596785052051, -0.878487056606131, -0.124241234463019, 0.492136755942072, 0.336961110285693, 0.330218786338472, -0.736076055742994, -0.307576063540590, 0.753314217050540, -0.104970872774481, -0.330184163433948, 0.224751090593130, 0.408953473028542, 0.555226163788826, -0.348716247916615, 0.848703479206771, 0.575876978413642, -0.618195919401318, -0.203305853116649, -0.263025677396256, 0.621255780598322, 0.080746663729264, 0.440472907976258, 0.725599773101026, 0.130598503633132, 1.037832359405688, -0.501842806644887, -0.867905396704849, 0.316676257885921, 0.595766832675845, 0.251052411174769, -0.227380066474964, 0.411061603620571, -0.228892225110692, -0.056367402291319, 0.209325191147394, -0.783358180286760, -0.273109183476836, 0.526071116771346, -0.563970187848534, -0.277436543008745, -0.762637515779638, 0.358339017261159, 0.696129757309212, 0.672387238898639, 0.532823934270530, 0.832358268416631, 0.302855675569029, -0.846135711015532, 0.557350461717867, 0.552716611110885, 0.025601145881543, 0.306605140281818, -0.551078687271737, -0.681495516993089, 0.378068040293589, -0.805431399926198, -0.984611344099246, 0.641779865878217, -0.376685212608274, -0.638691918428379, -1.063640698892778, -0.079464804638450, -0.606581697437259, -0.297009550695229, 0.172475113408312, -1.148898729637456, 0.849694554858753, 0.082049748885279, -0.269909546295015, -0.832530751172075, -0.865951337779307, 0.065670725800487, -0.470740582183332, -0.550376409521004, -0.738012915387032, -0.331194152501368, 0.707423689656973, 0.282067138075654, -0.134228550229098, -1.001301201631555, 0.719653558207778, 0.388959967366913, -0.618995560070891, 0.234693270986562, -0.364794980844513, -0.722757536607470, -0.864579656848862, 0.325468370507931, -0.898357083727281, -0.168997593832192, 0.600915988775510, -0.302847702035991, 0.986005301683665, -0.415875012926596, -0.861189051507244, -0.297523424036557, 0.359965549405120, 0.184964641328209, -0.309763928730050, 0.228797250030330, -0.052504122771806, -0.277251421468148, -0.494427755119604, 0.351598081530965, -0.541797436897406, -1.036955095247373, 0.911784924110179, -0.857769645347014, -0.670683016189064, -0.867680414104509, 0.204870177987738, -0.679270625003367, 0.473886210350615, -0.899090169240174, -0.898117526242968, 0.459846314053881, 0.315866457725777, -0.891664384758274, -0.530238008393024, -0.453046254232534, 0.404437827221803, 0.043383232774224, 0.514898107971265, 0.857801979593391, 0.093318781367425, -0.814009571547172, 0.702326311850404, -1.080806897769116, 0.716502010983723, 0.269205566242891, -0.695251772076459, 0.249510777183634, 0.420952656710918, -0.250084358270342, -0.878375053834244, -0.699448606312982, 0.403643279810787, -0.670836132602242, -0.586237689383084, 0.829664469025256, -0.536186069445880, -0.881581737516338, -0.143489063396874, 0.642357133824057, -0.646596160840179, 0.330296185498418, 0.697846416240602, -0.114948278157130, -0.469809733448163, -0.331754792137739, -0.128089505741526, -0.863922646841746, -0.436731919791699, -0.551797346679847, 0.890237296429218, -0.278157405107479, -0.043537181075137, -0.723810578249326, 1.070795324155731, 1.095927474447486, 0.988249978953713, 0.599804740763599, -0.749713437461320, -0.642875618385122, -0.153709213928146, -0.640305308083929, 0.300531938440838, -0.502745919999175, -0.251907860219144, 0.053713881242519, 0.850229539902559, -0.551984612330903, 0.714830382585316, 0.199808660205205, -0.731713356345039, 0.995551545343066, 0.491012419185094, 0.354058180120570, 0.518107062864182, 0.214985655909287, -0.657481145564455, -0.478813919016089, 0.285420401859315, 0.503348891407409, 0.437722304690556, -0.394317884740494, -0.606722546116430, 0.751748631202734, 0.214342409423989, 0.579240564093742, -0.085744136254099, 0.089396615307094, -0.955136260106237, -0.678793547602597, -0.200611291001273, 0.440250496463180, -0.904179202522241, 0.701271149437619, 0.654102380105178, 0.122371565043414, -0.861822158982024, -1.017050575852186, -0.556803617782807, 0.006077894551505, 0.804805518798741, 0.173946558458212, -0.405718508659234, -0.882360498632931, -0.556627476135278, -0.379332884511972, 0.323463970614159, -0.050915220203303, 0.891267012682685, -0.107924668590777, 0.203015146655806, -0.456722678868836, -0.205810475789137, 0.072364009437197, 0.524189846241742, -0.547400674719433, 0.054515325000740, -0.875014856077755, 0.613101511384414, -0.471737936935972, -1.092124475343320, 0.980589289634178, 0.864789218938662, 0.541993101538282, -0.116060605403291, -0.976229262114574, 0.237530172157068, 1.478638119645279, 0.448239484123370, -0.073311380575538, 0.534514288623888, -0.692067491614623, 0.520473536728785, 0.561502334507819, 0.182466256528513, 0.763139868419183, -0.469623684120873, 0.806042569746601, 0.433066754331445, -0.942326742166463, 0.363430855876961, -0.053055846514846, -0.794929995654226, -0.938073844770593, -0.820464372481485, 0.263656134871872, 0.443979537136821, -0.510575882706295, -0.838863705063316, -0.466257326561481, -0.393786674423285, -1.065800326310819, 0.347793102156327, 0.691046151937518, -0.618694668431797, -0.614375896503266, -0.289653297520203, 0.323961174477950, 0.721707329498610, 0.483215351311243, 0.603931103556202, -0.041774444067544, 0.022923598980633, -0.365099125705485, 0.276052656770606, -0.875360875910198, -0.855934309798925, -1.067437497672416, -0.497701135285930, -0.655215706502916, 0.909922090334008, 0.716736872770432, -0.443876751279772, 0.372295767464276, -0.613498062900214, -0.243652633797087, -0.348968050412328, 0.567011508224553, -0.289308436286751, 0.633372256875103, -0.775342851557019, 0.673339392443010, -0.132476886121268, 0.181897630129783, -0.758914573606964, -0.840658723544836, 0.198035663244897, 0.340161161125982, 0.639127769917683, 0.216891370573091, -0.294757912128029, -0.261199081279013, -0.434307680782918, -0.601495883212687, 0.246381980996804, 0.823733858925160, -1.016924328371763, -0.310530942326719, 0.797184513207706, 0.755861888345237, 0.679840760524944, -0.637121137677283, -0.429940396718156, -0.003934183424019, 0.272588205192794, -0.776132689173252, -0.671898437555063, -0.909333575024775, -0.794066849304030, 0.098944786213133, 0.367383620595685, 1.033367042164587, -0.843673982750284, 0.182491839607495, -0.111955292881330, -0.647517472797346, 0.915339145032251, -0.016821738702563, 0.617190689688039, -0.337429167487974, -0.629285252700699, 0.608245507366225, 0.042850039745506, -0.420514155769557, -0.294518771696720, -0.352021671408452, -0.280446991689721, -1.097710307305643, -0.185974069239137, 0.511658817540359, 0.076641996851800, -0.900732797370757, 0.751116691758439, -0.255110500391032, -0.205752834024811, 0.840159152560874, 0.037293019854358, 0.806309869177156, -0.961279052710546, 0.666061862067519, -0.907629131134430, -0.398111231093844, -0.265244128118109, 0.599870069511130, -0.144966425335345, -0.146070615508002, -0.238690172842545, 0.520135799016511, -0.551837952774635, 0.123687970007528, 0.331230509722188, 0.469461746150098, -1.104655082860886, 0.849475398155319, -0.492731160733910, 0.313973459512880, -0.285886653496841, 0.994042850805292, -0.090058992872386, 0.799581845308238, -0.894481823262346, 0.630504778382986, -0.295925332590442, 1.009407334867198, -0.354135376648466, 0.685240558215188, -0.282505988966153, 0.127531241985815, 0.448031878509662, 0.497871393080447, -0.539984340020854, -0.117677241538512, -0.899868022459596, -0.927231212552352, 0.475648058243450, -0.485679688513956, -0.340630881495516, -0.161606695712639, 0.896379820887135, -0.229700535490318, 0.291845526892438, 0.771821903701271, 0.540103988554638, -0.669451133621255, -0.947865989117425, 0.378241703738059, -0.549118679744211, -1.136506632240118, -0.683861892388636, -0.631455066369630, 0.867154379321106, -0.815380908465942, -0.770302327451782, 0.427443300825497, 0.728579779698604, -0.293869054690408, 0.021443870910002, -0.000693321284777, -0.130001012375897, -0.872771766802697, 0.768175160225209, -0.759011137170802, 0.388842554945102, 0.783211392904819, -0.490490882926680, 0.625016038464561, 0.141664730067703, -0.483846522311878, -0.382784369576741, -0.709121949993041, -0.935816714187460, -0.249715666213690, -0.089958921796934, -0.841878335822494, -0.854824040476183, 0.038120519899794, 0.875393658629084, 0.736019526871810, 0.605668343978009, 0.646409005514103, 0.074134111735256, -0.187468329541874, 0.976389320562207, 0.777795664671671, 0.661066171881257, -0.253402551877079, -0.421811235724604, 0.306781797741066, -0.700435713550045, -1.060702381095488, 0.198424550508994, -0.837307563668782, 0.149715294418240, -0.458071978998700, 1.059533077319538, 0.095449307586005, 0.159930927206480, -0.105329474804426, 0.570748223638248, -0.100651280324349, 1.032331467448859, 0.375807401671992, 0.454332036795184, 0.944303123923987, 0.319183171982979, 0.892019036047523, 0.805632051238060, 0.643138572844130, 0.834291956964244, 0.439842986927216, 0.216443593968134, -0.262401791651413, 0.271969552614336, 0.684282812491139, 0.815884872007354, -0.373419068248901, -0.050274581626639, -0.250328817573719, -0.088818566785090, -0.604296536223851, -0.104338433146458, -0.345873519004619, 0.229598114989637, 0.448741622730511, 0.432723017064787, 0.317910062531292, -0.399275629772566, 0.906366270450533, -0.156167502529313, -0.898330021907533, -0.880060490167574, 0.049357560632379, 0.523372006606035, 0.635149319733638, -0.785441879837983, 0.741302022738668, 0.204592438785601, -0.712712305986354, -0.364416676769752, -0.642124169834772, 0.131876739071401, -0.294742551678059, 0.776520189348015, 0.990496501814601, -0.716498382156712, 0.593934415083298, 0.330819740501496, -0.760138549916133, -0.554841348431058, 0.130952499992922, 0.146312511284394, 0.889872528169855, -0.813935427795758, 0.143934920093991, -1.169941439590430, 0.437029778671344, 0.500511009823369, -0.970496722895461, 0.336151255632276, 0.317518991008471, 0.185828366554874, -0.386309035985981, -0.609759648699707, -0.941412731659288, 0.886350552301783, 0.893980748318445, 0.408647985223982, 0.006250609366988, -0.530840792048769, 0.603735692795986, -0.092464195037720, -0.906935193547076, 0.155875523741466, -0.589990413355150, 0.173151244329910, 0.528647303420106, -0.363472742207367, 0.659286272391191, -0.945143002370169, 0.458096908214367, 0.199788804095534, -0.465319702938010, -0.596172431972057, 0.774079778214515, -0.803727751406339, 0.744889104333934, -1.136857367044018, -0.590566010452295, -0.279136242260706, 0.736161478211937, -0.850235848623260, -0.017942250811471, 0.338395782878295, -0.353866184372916, -0.195209525890584, 0.062595132882745, 0.114735573219725, 0.618398284457081, -0.855553146441277, 0.159378224655302, -0.284803087380695, -0.129702893967083, 0.152857612657980, 0.707528450538339, 0.006232426419484, 0.294288433484958, 0.903634385688613, -0.154996878444344, 0.443747436455412, 0.916623290054423, -0.422296912060972, 0.225997668719539, 0.802794728534307, -0.778285299967430, -0.277211024507564, 0.913768625316422, -0.760753905271738, -0.860585189356631, 0.580520268467856, 0.025347871096685, -0.694764687429121, -0.627744945498283, 0.609258290372965, -0.546538562907657, -0.188858913792128, -0.181307775655470, -0.714360292795003, 0.760725827323560, 0.116385221328649, 1.026868557280163, -0.787286399417765, 0.219780686246528, -0.324721178012005, 0.497608393284463, -0.506141197685783, 0.002147408603888, 0.207731599864418, -0.380239719124943, -0.726155358161997, -0.587015618704371, 0.731039706673619, -0.607352787068573, 1.027805494227492, -0.532793149099312, 0.045892023110762, 0.024101207022991, -0.575221364208797, -0.449180729310274, -0.955158662391066, -0.644250906259471, 0.772089646258450, 0.091842045360321, -0.407892291847191, 0.269412092013944, -0.806249674196249, -0.326737888130705, -1.043776381048390, 0.648605778966830, -0.226465505330901, 0.035562101423777, 1.001925379625757, 0.250151597140563, 0.061590737786658, 0.245211572350456, -0.433147603935018, -0.834766730090452, -0.697947079510428, 0.190871855929835, -0.345701397679166, -0.456909665772582, -0.893546964740630, -1.140433135211589, 0.808733906244175, 0.442759629195087, 0.999942988578577, 0.247424959217521, 0.081462066518816, -0.228635768998896, -0.400850962310830, 0.855325509950930, -0.094993863754546, 0.915818047867093, 0.659792000748950, -0.283733776042395, 0.403730852004618, 1.013013665036605, -0.612160290185015, -0.191144100805779, -0.122894751591449, -0.045026366161991, -0.467383611888322, -0.187877407524716, -0.485146141030427, -0.810452307582035, -0.618514379687025, -1.118847727446275, -0.346626572079266, 0.824343935093850, 0.816405694493671, 0.464293147352143, 0.077230618367494, 0.386479413185486, -0.150713260489253, -0.110670151386239, 0.160814731859239, -0.309128355707958, -1.071314014855010, 0.747225450724265, -0.830858348262662, 0.469561291218648, 0.441932040983934, 0.585403413108598, -0.048428151202573, 0.646608716017556, 0.335355733257548, -0.297635793116493, 0.791288255031866, -0.128018590126201, -1.133469339081228, 1.024933642112503, -0.176216679202793, -0.051095374038121, -0.794359094273246, 0.288548963065361, -0.121277074879193, 0.861700612108979, 0.972082386313806, -0.527409759774008, -0.331874494135068, 0.425699724792791, 0.545486564241879, 0.401522128974384, -0.673378246429961, -0.011641253383600, 0.039012048848104, 0.753951634007678, -0.570938654214116, -0.419883494933634, -0.420850175374896, 0.591283825649934, 0.090120020162604, -0.461964464088719, 0.601749488021087, 0.312538647157436, -0.411101084675813, -0.284308798240966, 0.095189234806621, 0.439558347756543, -0.896777005452797, -0.946880276670146, -0.268116123822118, -0.286823452917242, -0.141066589695433, -0.390943287516457, 0.942986528137073, 0.772349796733301, -0.934823717719114, -0.533768485743370, -0.914194321039917, 0.634290331301555, -0.365982203464976, 0.913371515988466, 0.431986207858499, -0.866855554490545, 0.269322061502963, -0.787016618636502, -0.674438068635728, -0.220328941963355, 0.063584557713636, 0.827064315006308, -0.659979285956554, 0.014631499283336, 0.931605600065920, -0.826510419823631, -0.567735391516245, -0.931437920100090, -0.793501390416704, -0.898522326337578, -0.412282107482086, -0.745440843242020, 0.582693083240982, 0.128728934148168, 0.788621674688903, 0.211767891833904, 0.700455446000878, 0.860345998151494, 0.718042062933170, -1.170384459953309, -0.849525976854481, -0.046509769553029, -1.025482771144917, -0.502193134411556, -0.670345501126471, -0.600878395619323, -0.294461294717504, 0.819647638694123, -0.536072266156968, 0.313074920284516, 0.763366050246698, -0.352573211468730, -0.128688058960701, -0.547331670036983, -0.810457784011045, 0.747219469031138, -0.237869425685534, -0.632691105374411, 0.691381817221396, -0.875031937330529, 0.661999540784762, 0.260222683288401, 0.247438853943559, 0.241746658738127, 0.853683282369738, -0.060761089432250, -0.557127838305997, -0.431205954659519, -0.914846149524161, 0.673558960310327, -0.949432652067255, 0.489882423789608, -0.578910978048822, 0.190510521047294, -0.691177611876381, 0.418049938569141, 0.172793808615797, -0.761366259538852, 0.358227319752099, 0.503000389439940, 0.941759090273552, -0.784975674758429, 0.480406251202433, 0.873572379038319, 0.023624951033709, 0.879111664946988, -0.764790035173862, -0.351804412449036, -0.777691692829361, -0.477452541113447, -0.491600618895202, -0.731675102009120, -0.985189994955443, -0.749390905261093, 0.421158411011785, -0.988297237026681, -0.974444401145859, -0.556301979293565, -0.062807882121578, 0.142671853056003, 0.946358147578631, 0.105325195343465, -0.063617393512607, -0.771944702105684, 0.153469480672154, -0.004891471471185, -0.018087837938156, 0.586415285527217, 0.714781622269079, 0.039726673951344, -0.852391643008738, -0.945770588769526, -0.167161275355795, 0.877434386153403, 0.482070206696930, -0.161767016473449, -0.350993458726288, -0.931276796933065, -0.565992454247158, -0.544170054633153, -0.140712675063709, 0.226470214347782, 0.050128231098223, 0.269963427907743, -0.012863807535972, 0.260259043296689, 0.463124267446471, -0.463375217618101, 0.231165915027477, -0.954747236929512, -0.963768326011127, -0.805602653468467, 0.286348872687619, 0.456095287569705, 0.050407473720882, -0.549759683018614, 0.937811458820241, -0.855271818317804, 0.502246361184798, -0.276429707588885, -0.324813222789330, -0.850262919968243, 0.963825662662881, -0.865233667240194, -0.610714762538197, -0.523124400050468, 0.776191434662662, 0.474385803799906, -0.675698074941296, 0.236639810026197, -0.492960700706275, -0.523328003222180, 0.083832847606478, -0.131758228557327, 0.120841587385431, 0.739565524808207, 0.247344397416328, -0.604016578278046, -0.654454936220735, 0.111654710791997, 0.780729701629000, 0.650784127981556, -0.406166754995324, 1.034729218222035, -0.065733801924877, 0.727771459376739, -0.987145850439174, 1.051392494842446, 0.816497696124827, 0.147186489505122, -0.116799430631397, 0.487321833072114, -0.812525452647436, -1.058509707837128, 0.256182582056585, -0.284078136984940, -0.216709075195729, -0.411280972873823, -0.545835880498413, 0.835316122327069, -1.008346667553500, 0.156711438540491, -0.504573404685143, 0.638135670606729, -0.691457211255265, 0.534090110468087, 0.297218920490237, -0.795814153500441, -0.159877789113173, -0.720497826082341, 0.412662491099099, 0.637972290601018, -0.483010372875280, 0.673004325115697, 0.224406302850596, -0.882800767131378, 0.888197819459779, -0.960013935987207, -0.770446955004591, -0.059302987938684, -0.562890045045981, 0.518030814418250, 0.144914077694060, -0.985942386661430, -0.260366116780366, -0.256071692190308, -0.961524992655416, 0.047289043809189, 0.203612185695369, 0.040475402787836, 0.318793654560016, -0.643054590573240, -0.487872881137286, 0.775082099334253, -0.333465974951526, 0.761878798572301, 0.361801549018720, -0.031651337489699, 0.989008131985833, -0.880347574660442, 0.671153267439438, -0.443239651177590, -0.501705929300807, -0.332588807280845, 0.981307444240183, -0.612658391188478, 0.409089784331699, -0.387076007691485, -0.461842547579580, -0.625658429954794, 0.367617767543259, 0.840082378048585, 0.459624557286946, -0.662460776407176, -0.789083546495434, -0.636346271208414, 0.660787941100873, -0.995766367438078, 0.556450856676067, -0.059382340797261, 0.808647730326013, -0.482727129527574, -1.089990728329801, -0.592533392648170, 0.216147416032632, -0.018388938168455, 0.872532166784362, -0.544083521612231, 0.025297797487591, -0.252420708585054, 0.026425752035425, 0.409580475544513, 0.995708511502953, -0.109668569591131, 0.630736265606755, -0.664573640810802, -0.420900483427168, 0.169242843916375, 0.600964314597774, -0.523872657249334, -0.248992553446728, 0.702556098888632, -0.589103095748235, 0.808527040738200, -0.813855799184426, -0.971192038328313, 0.274747564421222, 0.180631883458907, 0.634480126045182, 0.010160792478445, 0.009082224130253, -1.122535025534446, 0.626753662388993, -0.732382534847024, -0.881799988021932, 0.794056737182240, -0.378516619326255, -0.893149212521850, -0.409315346491091, -0.516002292764307, 0.690541829060465, 0.862712187154081, -0.554162117079446, -0.140433982850548, 0.488325377182574, -0.421861904234677, -0.743159876367697, -0.209916033718543, 0.444493765496288, 0.304885128036608, -0.614826855126092, -0.471221624777168, 0.769117413340971, -0.419047213977921, 0.223724243325959, -0.666781289512920, 0.265119413871050, -0.309643976651564, -0.205690462209515, -0.982511943797846, -0.546974631626342, -0.758801789630942, 0.645133245969865, 0.895725905948617, -0.533497743972606, -0.309644963604335, -0.248082728997131, 0.707817752206781, 0.067639734451332, 0.308908809930105, 0.367184443609243, -0.921827231992645, 0.253063572020060, 0.098953293055175, -0.102187274829996, -0.460531987083014, 0.701962487004232, 0.067234387878736, -0.695250993240371, 0.915685475208450, -0.800729678776421, 0.111751056642304, -0.000090504849103, 0.052521156316154, 0.072016011270130, -0.141200487115778, -0.456175336484352, -0.693668787549689, 0.393306449505065, -0.480636409070565, 0.076726335737620, -0.227350939013460, 0.784036789579720, -0.129665667689834, 0.622672623473216, 0.049414012086342, 0.850835032277278, 0.125830799027504, -0.509767031761334, -0.736888191900024, -0.877068939750105, -0.515947421319291, -0.587112982037126, 0.611478981239422, -0.379236304277015, -0.593975935522572, 0.598714902476816, -1.332332535890875, 0.106905691338035, -0.948131127049273, 1.003299553118492, -0.416702618349478, 0.663736205441882, -0.137038226712166, 0.153357589172464, 0.182544807325890, 0.473271748635652, 0.454269434232926, -0.445340563515750, -0.305501637881992, 0.768277151204178, 0.722550521644994, -0.224029274967926, 0.202200431723765, -0.362835444423998, -0.071608194664429, 0.739441781460408, -0.982380902034104, 0.751726786946420, 0.382842273956147, -0.854263305144999, 0.805632590708959, -1.037152966986098, 0.020106569664670, 0.805841288241192, 0.286434504532514, 0.602664261760484, -0.977975509541200, -0.035973635572936, 0.547276236861645, 0.696763373854598, 0.086101059708457, 0.600235267661582, -0.208771809910249, -0.479637165191399, -0.268097262886405, 0.089815834803699, 0.545464755032698, 0.068085035742768, -0.655055339140284, -1.182429562668998, 0.624947132520091, -1.020671957539501, -1.397767119028879, -0.360168888565640, 0.532979723251468, -1.207733571286413, 0.875545827783940, 0.786197393825341, -0.807962402188662, -0.808056076622300, 0.423322401439649, 0.144915597942534, -1.076566730638538, -0.473824397411806, -1.146099582015537, 0.569448715291915, -0.705838229157486, -0.318081778215066, 0.889426586574589, -0.442731739676267, -0.007162489595528, -0.692879028190897, 0.486911561012658, -0.715259370081534, 0.405151985305088, 0.654555347708577, 0.477024766340576, -0.098449255675320, -0.684108226790886, 0.625145140547095, -0.267370942467997, -0.519189428033662, -0.423333894340153, -0.076215503418937, -0.166022869916864, -0.121462381753856, 0.252596009482450, 0.062076358847299, 0.701706568451507, 0.368635158292327, 0.373312948030837, -0.193697643306760, -0.854822454111974, -0.589925346296743, -0.138387077908688, -0.480007631232226, 0.836778357043113, -0.704534810735610, 0.300164317242201, 0.215868102519003, -0.220023428489769, -1.167649396031164, 0.367490434662160, 0.461910642223748, 0.592530638045318, 0.113036043710043, -0.581972641143299, -0.118014878095572, -0.063464070877033, 0.475608565797244, 0.223049992792222, -0.671399700883883, 0.431177218221081, 0.472431905346984, 0.272277770607258, 0.947662824889331, 0.123413858530117, -0.037387694497597, 0.994122740846362, -0.391196544744772, 0.829842060415869, -0.560019695227450, -0.519062937678092, 0.799123752785985, -1.119544767012286, 0.589872324034689, 0.642940518428555, 0.460336040964262, -0.404676809791238, -0.117469681795507, -0.491536638484363, -0.832545912557041, 0.449846030402314, 0.813106527184358, 0.291662594119161, 0.762407968921204, -0.009223714576542, -0.251785711914473, 0.321195828560022, -0.624928070250226, -0.047401082167640, -0.207347784935721, -0.319949088555544, 0.673885067609048, 0.511417763365748, -1.009226081814667, 0.242439128123471, -0.754149645326680, 0.258535965152203, -0.196864238832856, -0.117127453814519, 0.681248333257807, 0.656044315373431, -0.258491066043273, -0.664277744463573, -0.116036851252160, 0.366685225740614, 0.677593210075500, 0.499784046464186, 0.024132051276661, -0.708213241107887, 0.037016112732447, 1.104255242813740, -0.926414666866189, -0.340070060040278, 0.395890747976056, -1.027641803585659, -0.730915539879573, -0.667377313243959, -0.154948288227854, -0.730092716633604, 0.362051505693065, -0.284463058979484, 0.248023075286872, -0.597526462653275, -0.021369948688435, -0.397391864518907, -0.069421454327022, -0.667365870106743, 0.555698944076573, 0.808069909820498, -0.795484925544628, -0.370808071082546, -0.863271288458064, -0.148393078326768, -0.242666710173802, -0.234394799971842, 0.150320806775422, 0.733924373453721, -0.168770221735435, 0.873004752254360, -0.018228377769243, 0.606894070697222, 0.864833567009039, 0.792889460149568, -0.216323959941252, 0.271887154157240, 0.656246192357881, 1.031031729180153, -0.024147189413469, 0.006211967577748, -0.848199814530227, -0.059910914124197, -0.712879017469744, 1.304926246583706, -0.216503088084568, 0.196247967655463, -0.162572767314682, -1.192784261711503, -0.870746189122887, 0.120184815273559, 0.762932516122252, 0.246831603951601, 0.355918428262761, -0.815679897211924, -0.529713647718468, -0.460958717676247, -0.083294610653600, 0.811239720509298, 0.115481085261544, -0.575241701295414, 0.742873601056845, 0.954875569299075, -0.622457650705150, -0.775411310026511, -0.620545283565451, -0.507275637612402, -0.160088040439306, 0.550775548054185, 0.359341333869740, 0.844398979422399, -0.518339062187402, 0.266865703053714, -0.271454335246097, 0.793753415045211, -1.002736999484941, 0.523412031379664, 0.891575480127294, 0.480547423149608, -0.638446514212635, 0.623167026018666, 0.133397081113536, 0.400796066765775, 0.505938435658504, -0.027484609454705, 0.699933023935169, -0.616361571742585, -0.669262099237046, 0.808164219794848, -0.856691650522391, -0.404012425833205, -0.505816953690723, -0.882950504032883, -0.254915844855182, -0.631169299640122, -0.284589864497490, -0.891247985415186, -1.008640407619586, -0.173688442673058, 0.113118393287831, -0.632353143867605, 0.751092971170871, 0.883906972384557, -0.964322523263767, -0.226578864262632, -1.016774858225622, -0.407635350868438, 0.395352491326830, -0.681242925668650, -0.776744047805408, 0.488331621411323, -0.312623986511200, -0.302226148491095, 0.238153018830918, -0.075386393325937, 0.744011865640460, 0.415013723412144, -0.347052028461028, 0.578723687989140, -0.581272088329646, -0.729555700753675, -0.646706125341275, 0.903341284557841, 0.046809726098636, -0.457428079704615, -0.140450277265679, 0.824185858031572, 0.159860904056210, -0.326282499467538, 0.073230593137339, 0.778711254093671, -0.888894339844374, -0.618797690721820, -0.263639812718449, 0.172292601141155, -0.392454458977115, 0.818919743954830, -0.700744090440243, -0.170866727247570, 0.879186705351738, 0.051094398940999, -0.763226824451769, 0.672888184416594, 0.934426737288495, -0.828897992761694, -0.249749681360144, 0.890559399663222, -0.605097453084961, 0.462619891091012, -0.618552686688341, 0.749534565955774, -0.801046748680588, 0.564753851047241, 0.915855421251037, -0.947871521858468, -0.546051215867134, 0.289147607473919, -0.219886162932049, -0.839409171787667, -0.714823058478270, -0.019225167892537, 0.627481471277760, -0.543915041684266, 0.853284579919882, 0.290836529153824, 0.505176866536065, -0.418036909403960, -0.846103001599576, -1.102599947875481, -1.110961690808232, 0.880975955436201, -0.807513818238113, 0.654313783307991, -0.396746861102816, -0.575346275268949, 0.461097612233477, -0.925423567852217, -0.000678795127063, 0.413956400772571, -0.250896042751462, -0.831859743155538, 0.959960290944085, -0.282136001527267, 0.708064271651422, 0.193278867762280, -0.068851825229706, -0.338264014014402, -1.229089569308560, -0.023429080657239, 0.321412585221935, -0.561703884790468, 0.713920075795784, 0.677152010626337, -0.055359724203923, 0.903208618921055, -1.008942593606239, -0.212081853563822, 0.024988431075581, -0.029140124556809, 0.953647157390940, -0.379613465776617, -0.800088840077952, 0.366197832758555, -0.623777289451293, -0.494702163782349, 0.013178392440779, 0.218850358566378, -0.264023502047660, -0.072614952099595, 0.245051059075006, 0.694430606165879, -0.180039952482195, 0.186446902770042, 0.065927022132698, 0.598116460829417, -0.259314471627087, 0.513665668265195, -0.963912615245571, 0.045589835688868, 1.562029641191003, -0.595058414866572, -1.052632582249895, -0.856597382679935, -0.228156766342128, 0.013360853639466, -0.568588146208307, 0.504186923129363, 0.361486545866821, -0.713429217059746, -0.030153449119146, -1.252912554694283, -0.801704201022112, 0.935255086538198, 0.580631411409200, 0.337889014109736, -0.657676254692379, -0.968064052160233, 0.306842578583216, 0.894149608520253, -0.025582681742672, 0.177550792260244, 0.849645272018482, 0.631640356312332, 0.388480969694906, -0.107362690452882, 0.417344249339246, -0.558017680667808, -1.171799614634043, 0.151083074124751, -0.036905763206123, -0.270966002355052, 0.327706546094952, 0.220476543614857, -0.072336067371889, -0.641430877303199, -0.316108336278476, 0.817357269783950, 0.127595404650867, -0.110826277786633, -0.572311811021266, 0.292862770924916, -0.695799802401472, 0.596393066266434, 0.375982209142856, 0.166675502271829, 0.640648305244125, 0.319418617152972, -0.495123099921994, -0.413050355888869, 0.795509414296899, 0.256514943866314, -0.078136211435985, -0.367704974258631, -1.161940055925647, 0.156455899548438, -0.514629398627222, -0.764582282411679, 0.835301543967962, 0.110635172214944, -0.791746206638427, 0.554186523741248, 0.530682023992112, 0.811624524031146, -1.090237670588852, -0.403172921070619, -0.818814795274550, -0.695610522769483, -0.094879090563474, -0.808294546174599, -0.695667289460650, -0.227112855328256, -0.566098872663827, -0.602127146907717, 0.769258180866029, 0.447559550714387, 0.539643831558842, -0.574798687433010, 0.250478994070399, -0.397163289960293, 0.047621143830821, -0.102003922592144, 0.324892835658960, 0.192045428085149, -1.112633422406315, 0.474180197565590, 0.452094436118010, 0.953907574625649, -1.129541390971274, -0.737665157407794, 0.719187618698451, 0.430090565859027, -0.552449434713432, -1.144867101613702, 0.662799897109182, -0.734163739134541, -0.737345890584048, -0.640432171892218, 0.055976604008783, -0.637784017162012, -0.759814252036963, 0.251741560720307, 0.741264515161458, 0.061233434897915, 0.340102668008590, 0.839051684311219, -0.576578547297682, 0.316083718418997, 0.835473770176863, -0.244536895152383, -0.831306633700634, -1.012872607035286, -0.084624108771657, -0.471180846616376, -0.504040661815315, 0.406003278579688, 0.755530014333186, -0.089370099940424, -0.340168488217788, -0.024168750873135, 0.507856161475010, -0.081062980584072, -0.847640268976577, -0.524775489524759, 0.516424363086767, 0.855416999525061, -0.470457215506480, 1.124473747484335, 0.686653465451608, -0.213785394422458, -0.882776234617565, -0.315079139647444, 0.296755644990690, -0.607981773005299, 0.579336941328731, -0.305645548399756, -0.377039272948213, -1.011884792695991, -0.548376892998816, -0.943046615500091, 0.782772473630637, 0.409087150450840, 0.443768019700813, -0.671558504207333, -0.001321805150662, 0.162105261365797, -0.460923280563933, 0.672457350376462, 0.600283492108227, -0.012644316135053, -0.308295250216776, -0.057808920376954, -0.485620509348202, 0.859910267437358, 0.607016092448667, -0.762002318186996, 0.913266129724131, -0.641233958926825, 0.744989461833217, 0.491187690088309, -0.074809222508163, -1.133032247470221, 0.259453349354942, 0.578163880078021, -0.289948178611115, -0.191357821645010, 0.065554798854678, -0.807104085081309, 0.280474763602426, 0.142360791159569, 0.299926835364501, -0.219866706180042, -0.109423099841333, -0.766296196143781, 0.996549466409720, 0.346491922375196, 0.634159119017496, -0.919108908709603, 0.381494159374399, 0.196523078259375, -0.145187968447500, 0.357529586518432, 0.192383567262898, -0.830924527019754, 0.124270519618152, 0.314228694124924, -0.882039907039932, -0.788140897814358, 0.410802821040917, 0.185172762078155, -0.978717972469532, -0.448922567737945, 0.298393203921101, 0.528687821412430, 0.143200141291936, -0.716950984637501, -0.085661145195359, -0.508066840464295, -0.857713683949957, -0.650000452670663, -0.220426285357717, 0.704956125019434, -0.764834251257619, 0.410384650424149, 0.920724669092157, 0.549895962332691, -0.197026725579476, -0.529673780073125, -0.226801310357749, 0.247795222459387, 0.084697897319587, -0.942245732843784, -0.732729938532669, -0.710765081384564, -0.590408574133614, 0.736541415964254, 0.227676835902875, 0.172368595620997, -0.310052837959429, 0.341894064774645, -0.643554697574175, -0.447533756366259, -0.149308571734324, 0.878770397247992, -0.166012961102048, -0.359798091593835, 0.211719446675894, 0.900833275853532, 0.782608810097480, -0.601682028951474, 0.907209338035934, -1.093598621084572, -0.109954906795266, -0.868202626336390, 0.039457076202878, 0.537645647173674, 0.580364336277423, -0.198466782445765, 0.482361352893989, 0.159560015442930, 0.567344241778035, 1.107287659728694, -0.520882091050280, -0.090530886827114, 0.827381779703156, 0.588675060332014, -0.877956011278678, 0.800514702400853, -0.704592473906837, -0.358274476435041, 0.523300539227472, -0.788224921412831, 0.719048392407918, 0.181065128772684, -0.333952404445131, 0.299565842042354, -0.616013259502731, 0.894674421065075, -0.016444141349800, -0.712200054790003, -0.240856617070930, 0.140672871781897, 0.976835423002876, 0.927132630509646, 0.094553131675804, -0.007691952712821, -0.859607868208491, 0.127171407657755, 0.338899349442924, 0.095284962560425, -0.888082452845133, -1.131493863045622, -0.557249731829074, -0.719138282042761, -0.657529323929465, 0.485385278095414, -0.488219538703595, 0.854134349214657, -0.936994726655110, 0.282791166583616, -0.355116427013848, -0.419083190423865, -0.702999184139332, -0.375573047499893, 0.550909501410869, 0.062324493616060, 0.772675616903031, 0.398978413400006, 0.432524232617307, 0.275777127758718, 0.435049054017238, -0.010232502624225, 0.032757954338641, -1.004716208653799, 0.039465391757874, 0.001855587529887, 0.134500286419639, 0.010458872505029, -1.255828722420149, -0.882150722685323, 0.770610334862098, 0.658219698473639, 0.952597376577327, 0.485765167959896, 0.311245200090847, -0.510665834951372, 0.244733959201936, -0.205937939988638, 0.894429308802313, -0.614330088572474, -0.767043177344844, 0.953605385318977, 1.157867991079453, 0.174354346412600, 0.010330239218463, -0.314578512905934, 0.365449755241711, 0.799132207356218, -0.665586924888922, 0.691533071892571, 0.456546250383585, -0.721273273679606, -1.017844337724454, -0.669079727138064, 0.972401141827703, 0.616830796823274, -0.934362989815885, -0.344788330998032, -0.993031553892344, -0.234479487931513, 0.907528367946169, 0.711578025797258, -0.932689192846233, 0.188196644998531, 0.627089010022118, -0.326829997238774, 0.203660173015488, -0.692499244093671, -0.251863452460498, -0.638687407647033, -0.209285804374252, 0.229716269679402, -0.058920370423613, 0.310820332253440, 0.968423168683235, 0.406465320072494, -0.919680970293065, -0.476306799777707, 0.830724340226881, -0.501015744327946, -0.948411090240617, -0.275453649188757, 0.772210956037892, -0.314908671142163, -0.778527112820431, 0.483866765018271, -0.171473246606554, 0.464311972681419, -0.098483722964767, 0.842346477398297, -0.321633426064804, 0.257145186070332, 0.399458164321836, 0.230596589516541, 0.125541602106524, -0.152209019770681, 0.229720548387052, 0.722047678506264, 0.932121277870014, -0.632442334598268, 0.105523000794577, -0.211264788673591, 0.747935637315036, 0.150231730004155, 0.491461147292165, 0.073947319838288, -0.560872273241671, 0.518145476134028, 0.950015238334175, -0.448859283567474, 0.034707815991683, 0.329567948209392, 0.385066810517079, -0.221548072035058, 0.341759639327988, -0.024464836082742, 1.042841004377047, 0.764484576469662, -0.514089769807616, -0.127449029588974, -0.478202508034858, -0.359282966265770, 0.267413278397278, -0.370373661779812, -0.388915052624133, 0.063732174265574, -0.733452956891801, -0.620150914863650, -0.630156734949009, -0.893105825728226, -0.060980123401058, 0.862005645527242, -0.009231322640939, 0.379874867718989, 0.622482765694660, -1.269996926416163, 0.170496374327983, 0.144478650560665, -0.145379258734932, 0.309374356659364, -0.326992983590313, -0.540793345136424, -0.534481745072556, -0.119077416723796, -0.530332651647198, 0.327820124448419, 0.178609962023253, 0.647535981031882, -0.414850596919607, -0.382574208752538, -0.094778797986019, -0.453445481005229, -0.802235172132598, -0.318668377323713, 0.080925456989975, -0.208678810720872, 0.637942616831471, -0.208213292882511, -0.814995208626771, -0.039620453290618, 0.424432567969079, 0.814864540313676, -0.433203747485247, 0.399338808541906, -0.662127984646085, -0.277357412238924, -0.598506168709693, -0.096736378695262, 0.602882208997920, 0.359693008425916, 0.760337609713467, -0.699753715972671, -0.644818738406054, 0.028777773163848, 0.295324760243984, 0.834376333572232, 1.097668642713265, -0.777175609063251, -0.572930200493472, -0.591020240332498, -0.090786916330859, -0.645599422452507, -0.098390072587596, 0.299255078015957, 1.038393661256538, 0.317235010199991, -0.732201396284424, -0.890653234965611, -0.747426301629328, -0.341069093171400, 0.410975377372622, 0.409961596503598, 0.388373698126185, -0.422229905074456, -0.382330618943255, 0.901206291562898, -0.416083805619325, -0.311476160984990, 0.414476620120611, -0.252220227911136, 0.218797515225347, -0.179226719264575, -0.597688286052534, 0.542124107624455, -0.783619766426904, 0.428416937234296, 0.072610947112166, 0.865386057832966, -0.040528974975200, -0.663831370271086, -0.732381164241735, -1.008709095813899, -0.572977460469462, -0.721350753312406, -0.858494110467284, -0.081095428626419, 0.120382274096443, -0.296091097649738, -0.095388458534562, -0.442255980167057, 0.089596491291744, -0.322908394711910, 0.240936416952057, 0.315176734507204, 0.104345065142210, -0.362257476416062, -0.497729948811459, -0.724286924529027, -0.068941559708253, 0.479970613667536, -0.122897166811940, 0.181300182785994, -1.136966244381313, 0.935123189987774, 0.771020245216214, -0.979501453440312, 0.664847999327249, -0.499457964030079, 0.595411784506773, 0.573683455442677, -0.617567307559653, 0.975891325275967, 0.597392175822256, 0.357872007506755, -0.622849673747649, -0.898071886880363, 0.015165663385581, -0.505885381457689, -0.068305286666681, 0.603487923068944, 0.407215615238952, -1.007008524804293, 0.391342505063426, -1.068897809328380, -0.766177873624495, -0.020610463372241, -0.587434044809179, -0.248427904093707, -0.240269991400739, 0.227318722653385, -0.547990669372612, 0.977878907528091, 0.978107511997393, -0.211008866387082, 0.940314931165336, -0.008272159919276, 0.028814986225486, 0.619951648217378, -0.474563499444209, -0.072181978825549, 0.033435180738792, 0.514949852573944, 0.619156275086639, -0.460356259803133, 0.403634482225564, 0.329335700203654, 0.014261213620115, -0.078538960546306, 0.770987423275331, -0.604460821605406, -0.996595696552407, -0.560858724990477, 0.688706917219350, -0.928467755626408, -0.831470483115222, -0.515102055127255, -0.625331738538194, -0.803295129759166, 0.102710892987264, 0.228651723732800, 0.300899426359218, -0.297322238079683, -0.470424069397555, 0.674727397910201, 0.765934711676255, -0.605515001458645, -0.063759039415785, 1.006752385803771, 0.103410287692919, 0.795708046662490, -0.628475637597446, 0.015241371638461, -0.964295930777731, -0.838618623120502, -0.403461600329359, -0.389821197624705, -0.658879072251376, 0.192963047520585, -0.621533956954677, 0.973633628583502, 0.185957153066539, 0.899224005086153, -0.626568247817848, -0.097038159830933, -0.313888188213129, -0.021909704408820, -0.163922701025078, 0.782871902467953, -0.896502688175953, 0.786446052783817, -0.233389233214891, 0.593146261801369, 0.720163871928028, -0.419384377266653, 1.037660685128675, 0.474449170234132, 0.753677659674782, 0.699187873348010, 0.645718724801728, -1.118747273764060, -0.106208297284749, -0.200562339958827, -0.275228205155074, -0.033448731109508, -0.409651478670942, -0.375054014796753, 0.612870381378305, -0.073952525671608, -0.865477967130882, 0.711730330648006, 0.447870285628866, -0.204852190166587, 1.017163601183781, 0.285701846870393, -0.004099474077399, 0.684127079842440, -1.192755621662745, -0.239760952575635, -0.439838924915036, -0.878240701877311, 1.015386360561122, -0.400525126173979, -0.592014030267908, -0.677163725897306, 0.043858966717536, -1.041355136687652, -0.765724331189093, -0.358122108199993, -0.470497418848626, 0.475078874872280, 0.011807535506354, 0.736178592706031, 0.213155672423164, 0.423168826976873, 0.497287976944117, -0.454156871196005, -0.167123340745681, -0.044213668746557, -0.289992403788404, -0.331254139340601, -1.069092214960273, 0.498490118932394, -0.638527154470606, -0.841941555625888, 0.144982526191125, -0.939309231919712, -0.565593094768064, 0.568145427948723, 0.992028749767762, -0.361407781232513, -0.558997912089868, -0.279664865998572, -0.310906592952632, 0.957464967633824, -0.056231179936803, 0.566202650280147, 0.465930384568316, -0.530123133399480, -0.080405348205979, 0.742355195185914, 0.618473046158464, 0.029400662861637, -0.919083899421010, -0.903263277337225, 0.028106290055203, -0.798305238169044, 0.560325802320857, -0.168777274572600, -0.434767923096443, 0.066425496014505, -0.186629877462146, 0.018953928929899, 0.592060860454435, 0.537017477252007, -0.546914613638344, 0.430772257740778, 0.532045098390467, 0.124539201351315, -0.068440839269945, 0.654949943634133, -0.836069076400173, 0.124570462053553, -0.282650687594889, 0.729921487587441, 0.808722412784570, -0.335355289061265, -0.258981710388085, 0.777132546687374, -0.820491742560140, 0.068455832159243, -0.562490931553627, -0.031891809429337, -0.939774584711144, 0.459631858246375, 0.393224065282279, -0.902628509779496, 0.641833755991672, 0.799118147607460, 0.032291248360117, 0.443958280341859, -0.564229328057993, 0.212743547127590, -0.534772312707809, -0.421639458527010, -0.279787980032854, 0.322843180084922, 0.353621159827054, -0.894316494895227, 0.362536031842258, -0.553657326498562, 0.112565461969830, 0.156825877228172, 0.523339208524078, -0.588712433696200, 0.647717828473695, -0.459744314933623, 0.005382273400917, 0.402799448919310, 0.413203139782422, 0.976771427234448, -0.704875363481806, 1.310684061863438, 0.851846759598442, 0.514684669382303, -0.958778154456614, -0.243361663158303, 0.817873663574474, -0.100754337531405, 0.613636256418940, 0.851546389065068, -0.113502520292115, -1.048317610038656, -0.875536104601787, 0.075144640929173, -0.868534662078109, 0.828065335279818, 0.145644460694210, -0.625915501180578, -0.327851219444693, -0.512481886288231, -0.024859923722949, -0.151405431289081, -0.512616627022431, 0.136211107046315, -0.754402506859058, -0.287387335731927, -0.177505668037215, 0.898602024728958, -0.632482537756217, 0.179718350469396, 0.212028268321089, 0.461053040057994, -0.868550966931880, 1.068718391820290, 0.838706064384082, 0.167543438791813, 0.652707963473848, 0.479608591512434, -0.310210755480843, 0.259474909311878, 0.772906828695510, 0.510672822988692, -0.830598649401394, -0.603200743551697, -0.762620191595139, -0.403295306622331, 0.560000026535819, 0.885269365127029, -0.026478459971945, -0.036452505968611, 0.478312619490637, 0.240179179671049, 0.186807227832919, -0.740250930741372, -0.447432838059856, -0.762930729965913, -1.108463102895658, 0.840640908822749, -0.445616544589839, -0.467646934289687, 0.089968450670653, -0.367711482343687, 0.543614610587530, -0.109695770499185, 0.097916701497080, 0.147155158124163, 0.591226291921471, -0.013778150720897, 0.145588093347835, 0.475325541020075, -0.298019652588044, -0.981388012147308, 0.791786794532356, 0.078075789577978, 0.394586823751977, 0.110852020843461, 0.663243884195624, 0.506661070347059, -0.680846848526418, -0.036466900390861, 0.217737353146539, 0.849596051100475, -0.948799033049109, 0.191945300172146, -0.236102532468423, -0.986802460779224, 0.188943782387857, 0.203930361220884, 0.876745122710427, -0.594294355630606, -0.833196638378157, 0.611611617052170, -0.097045093977076, -0.317729841687254, -0.160427988340154, 0.621562070413400, -0.899124786549534, -0.485223475249675, 0.129430856887712, -0.494776831791434, -0.245195171745758, 0.444171523107337, 0.652731545533486, -0.536644759597449, 0.743044705946301, -1.191629300611965, 0.283485248540455, -0.962164188730833, -0.022284210044144, -0.163592274886638, 0.165708479378514, 1.012756363179562, 0.615939352569802, 0.011930731904695, 0.859392983383411, 0.248414143344446, 0.922654271863436, -0.373076057903231, 0.009202188891785, -0.523554529951693, 0.742605362998967, 0.289647544232213, -0.846556915059496, -0.821880192230482, 0.517106147720946, -0.656719356430357, -0.421744584352932, 0.319198247947564, 0.261456598743340, 0.013009040825398, 0.608713773819543, 0.352905775286796, -0.499746931256094, -0.481073074232834, -0.794183867893030, -0.820722757126471, 0.441248066000342, 0.339617327625980, 0.344588191763183, -0.909003909977985, 1.212454019992319, -0.906162486614901, -0.062054284085179, 0.073126596310644, 0.811703852284390, -0.403469164003113, -0.610119737468490, -0.281917724198231, -0.425292689217100, -0.874760278341859, -0.693215277105053, 0.729539922418475, 0.635723345795871, 0.481870713426239, 0.019151561421746, 0.107885633809113, 0.794649578578028, -0.152041563390895, -0.036096943243478, -0.817311272655749, -1.105546577978791, 0.396260752533489, -0.020497720561568, 0.173081479045600, 0.733964884566077, -0.032068035205571, 0.579212821702816, 0.872679814667194, -0.456570331491849, 0.330474200022318, -0.276032470947470, 0.825900885907938, 0.881819694936318, -0.891973521138175, 0.748138004506514, 0.016083941388626, -0.315691875446832, -0.948617932950433, 0.035623517943759, 0.272742679374613, 0.714482135752634, -0.910477811318673, 0.292611999728736, 0.834709246592517, -0.948936485675854, -0.395426700157571, 0.720587541897611, 0.412014086073679, -0.569383295735162, -0.380349752880098, -0.294251035382730, -0.738062785058449, 0.859056485595860, 0.498597956771872, -0.156612135334593, -1.159602975261689, 0.570703976462434, -0.437061639248234, 0.223231828304407, 0.140922599674043, 0.684319825044143, 0.709042997203522, -0.288516075409788, -0.902396900924468, -0.690414563370007, 0.980386743786627, 0.978359649693203, -0.419259680257509, -0.851391626419035, 0.590402438245607, 0.884114611568335, -0.516969614215665, 0.618755778241487, 0.643245497790547, -0.517089317229796, -1.076422187626686, 0.988107507918103, -0.393396583380284, 0.591581137108542, -0.604215872242721, -0.175204223340893, -0.756065002392660, -0.326019176751139, 0.501033007640169, 0.432596093034012, 0.113894229962756, -0.018312827582659, -0.317476868261696, 0.106762777348146, 0.573996721996895, 0.368998718365764, -0.623059015096251, -0.874843372924759, -0.987845014797108, 0.577063517708342, -0.249507785870389, 0.271688871651204, 0.639162645853468, -0.679914154372787, 0.766491495430637, -0.937777430292139, -0.419629749071587, -0.792167871173743, -0.196676841823873, -0.170625332143203, 0.415411033866611, 0.713913280755916, -1.014758309879175, -0.624514224437998, -0.118068687096509, 0.268586967684849, -0.404807464396553, -0.319148611450763, -0.248340092673099, 0.669807183726645, 0.226702361131024, 0.523252456570595, 0.836388601427323, 0.334736329900499, 0.376162847888812, -0.725726925769706, 0.387607094976603, 0.785749893608700, 0.495647714208621, -0.198097896221553, 0.704439281752306, -1.055278529486763, -0.191418655681874, -0.793499611581845, -0.409260482796362, 0.925400118821348, -0.501328128827367, -0.571501495316218, -1.031689142665239, -0.144281421139942, 0.670573438063823, -0.575719005113009, 0.848612133058135, -0.258851873213602, 0.496327069993580, 0.142087163881286, -0.193318761962451, 0.383094928407495, 0.492270337524608, -0.837604549890993, -0.756825697108305, -0.306009402141773, -1.151784382185238, 0.447564353515333, 0.605977083468029, -0.755681316201509, 0.390947434587407, 0.835522245046406, -0.803322523825417, 0.171933453383632, 0.464461789557882, -0.283355699363730, -0.343408259280905, 0.428937474134507, -0.306962730927888, 0.657523343518886, -0.056417088088305, -0.406239730688979, 1.068301819636795, 1.068256170954431, 0.422748961853586, 0.683346477268178, 0.947314329642497, 0.705877159159075, 0.422503540378537, -0.908007755978878, -0.602559791849689, -0.398830813704825, 0.833646413622476, -0.213968887670118, -0.358092576788515, -0.796041842675158, -0.717455382933406, 0.959018699061079, -0.012046854359422, -0.798183724000627, -0.838141190181371, -0.741456726818124, -0.859091692621579, -0.978099116199203, 0.250588837591280, 0.675270471715471, 0.528119602793975, -0.328689566434363, -0.046547737638548, 0.801507166151103, 0.499345435686040, -0.988088847313149, 0.468526078572868, -1.037580663046801, -0.321791668519018, -0.239305070497161, 0.546582188045373, 0.993703736960078, 0.253115934921843, -0.179284938558475, 0.506081999637174, 0.645556336929560, -0.115055731424690, -0.992334613570339, -0.513461697350396, -0.169462160020088, -0.024849342209911, 0.693897053009885, -0.254984550441244, -0.918587191499734, -0.138349903470495, -0.487577158919121, -1.350228476660634, 0.395591777160088, 0.282623978276873, -0.618477849901532, 0.418618369257255, -0.513812342449258, 0.797774407684658, -0.158053224632187, -0.126301255869594, 0.105362340705528, -0.885961386002800, 0.334852562008663, -0.501163099154253, -0.688663425057814, -0.519481556985242, -0.213718852628130, -0.452414732220494, 0.145184269813155, 0.213136901177968, 0.119491901993710, -0.751828727894161, 0.023841933049344, -0.918882739542030, 0.708763267258627, 0.033893470055974, -0.658408095152765, 0.809595845135214, 1.012255987777667, -0.950266979468206, 0.564449445630345, 0.917739392758356, -0.968653425231853, 0.343847136804177, 0.140140607761242, 0.235955929380717, -0.611122881975098, -0.931253108827690, 0.390651255579595, -0.408667706490885, -0.851407539168382, -0.757252305596279, -0.876691655096237, -0.461673446938425, 0.708920933526542, -0.731065572152102, -0.053541387623380, 0.292670326321269, 0.555091143367503, -0.916902337118286, -0.801805228487239, -0.180170833594985, 0.497290086869889, 0.493400115180299, 0.971668054275626, -0.461733668279256, -0.535524683127744, -0.147158889832294, -0.010024855320287, -0.845768577927846, -0.472519773463562, 0.572381697201366, 0.775560698700660, -0.135892369123316, -0.873913294640671, 0.324635480763430, -0.353167052007086, 0.514589438458418, -0.774329932447946, 0.662716960916980, 0.240522279394734, -0.941504482159336, 0.095162127364141, 0.789514017417769, -0.910174407524238, 0.094344167537455, -0.268313672141159, -0.144800551360019, 0.455403460298116, -0.280834084988330, 1.007766795684128, -0.354799772279430, 0.151451068492098, -0.414191908407607, 0.076258173281294, -0.702603438370093, -0.212410106154726, 0.392324070617319, -0.003077731082173, 0.665903375110563, 0.769803605084414, -0.359675258824506, 1.135741772319972, -0.887134949429220, -0.324596662711074, 0.163076023565196, -0.397539519657305, -1.038326837552170, -0.413914056295021, -1.093271393241139, 0.741234156887526, -0.437342189029424, 0.713579915840739, -0.951395770210827, 0.513803114781992, 0.733748814910585, 0.716870898197289, -0.809490760395852, -0.537604064742716, 0.066085187123431, 0.625600003607030, -0.011850361617771, -0.492176439585429, 0.915864472946972, 0.259655547863893, 0.251648166533189, -0.363061278662713, -0.287637339482298, 0.736708414369705, 1.035166915484270, -0.538367759445081, 0.514748579689515, 0.017351315682174, -0.242342867291495, -0.505447902269742, 1.082462154600287, 0.767989130759880, 0.713480415451139, -0.095625744850607, -0.576271044347519, 0.332827646838742, 0.584726890872172, -0.770956037401412, -0.604580372205584, -0.511554193743967, -1.136573138395367, -0.213914145447319, 0.122364116740047, 0.649616363389760, -0.658160530675447, -0.237999630432870, -0.305299357235766, 0.091254128365139, -0.220455743277796, -0.061916869611970, -0.811320281878821, 0.042542349066107, 0.307460400680751, 0.658803285927857, -0.050371650709208, 0.151959260034555, 0.747232087214628, -0.496513305372188, 0.143091216552188, 0.120655489187634, -1.205000872709945, 0.749096676224110, 0.322922164258626, 0.152359523940794, 0.974372402366062, -0.101637595077715, -0.351769905408178, -1.089228302490998, -0.285881188770513, 0.581144015218230, -0.531386721538776, -0.136237447511733, 0.789330013974491, 0.112500009156285, -0.228433501105672, -0.275192472252402, 0.489015471286283, -0.644651008969452, 0.306668880882953, -0.631895623330779, -0.852909571485455, 0.714059089588306, -0.541210674507837, -0.054799188522634, 1.166066537727426, 0.347538365493602, -0.093500210982523, -0.157693906577557, 0.297678364480738, -0.517639220080548, -0.308628327535207, 0.732387738980888, 0.186874291736921, 0.835730998769150, -0.587270076870429, -0.984573900905512, -0.552504594809505, 0.016021092276535, 0.452426346081125, 0.202703142719500, 0.973975103814961, -0.667533178561189, -0.238332999600230, 0.065315889852673, 0.182457392725675, -0.063590719544404, 0.122230782328813, 0.183853632526508, -0.229040246659253, 0.845138424615829, 0.473039855454177, 0.176884226162799, 0.320981986487834, -0.321138979806190, 0.575527769670855, -0.595619923811849, -0.928174053205881, 0.625090451344906, 0.287260328062970, 0.897326871493772, 0.976300869397070, -0.868572380926444, 0.967333725879785, 0.774928655567590, 0.217652092444124, -0.928456898724207, -0.201640179494327, 0.737343703933304, -0.271768555282991, -0.274708020647285, -0.696938007346019, -0.314315588678324, -0.976561464312226, 0.144187944589875, -0.391175456232176, 0.611154026804295, 0.329794269937817, 0.823787976518592, 0.486628008728719, -0.191403205449040, 0.622267639700288, -1.309738854692269, -0.087279760017710, 0.198048240412153, -1.042479392859602, -0.896783580656290, -0.754306921318822, 0.814307506819131, -1.080660765891729, 0.524875479357324, -1.005781217243187, 0.361870463464665, -0.136962687563881, 0.391496484698418, -1.034219091117239, 0.660148875888038, -1.078536930459038, 0.434120880564864, 0.731470553181473, 0.847600355842402, -0.780575274851918, -0.635510083847334, 0.607644901701582, -0.671176552602622, 0.861843423241018, 0.738523326840930, -0.095261014746896, -0.705637873333457, -0.323291421676193, -0.069627156596802, -0.578626081011197, -0.819235966136784, -0.883651380410308, -0.062891327869232, 0.431057723882035, -0.584983016149117, 0.654175408642705, 0.525136400299863, -0.747534372690167, -1.090652804273751, 0.452199770802558, 0.754214891872265, 0.389400222998047, 0.192503509337949, 0.289080492752214, 0.823115162450174, 0.830243291376347, 0.883706096087426, -1.202699358078753, -0.019329532127930, -0.587912521797833, -0.742399613559809, 0.829069656236740, -0.261040025713971, 0.365573047333699, -0.396480209796102, 0.494914155181712, 0.273403382745575, -0.356335365425829, 0.413372008288815, -0.605429481872328, -0.316697689214104, -0.769168556239235, 0.252762356216605, -0.453691938780343, -0.340615564232497, -0.961694325890470, 1.068242775682229, 0.182377955852956, 0.243456144573128, -0.079695787371532, -0.421914719937454, -0.395692351716808, -0.566250481932701, -0.502972041540426, 0.174692521640180, -0.172559713303342, -0.638433153992955, -0.025682625320755, -0.621102854201814, 0.493928775150885, -0.619916763273797, -0.552679156480175, 0.823861211128279, -0.649380904524962, -0.137335860480388, -0.555433828736086, -0.474028133255351, 0.350935119020644, 0.831923571389193, 0.328089211161651, -0.197374561359880, -0.340612817889432, 0.580015344875330, 0.962010883417866, 0.150359292296551, 1.220535360462273, 0.033921148672502, 1.022025597396929, 0.037074105618180, -0.058936075050452, -0.749969824393474, -0.236554005689427, -0.657350400931732, 0.362354688362292, 0.777148143253303, 0.267377090857388, -0.087974035286909, 0.365042368804451, -0.501087591837921, -0.336502976237337, 0.317417850068744, 0.308915153789824, 0.316605105872774, 0.211910678165273, -0.453614904365517, -0.113943971418555, -0.086663806376373, -0.504135751650058, -0.725919370034246};
	double * mw = mainWeights;
	double hiddenLayer1outputs[37];
	double hiddenLayer2outputs[37];
	int c;

	inputs[0] = -1.0 + (inputs[0] - 16574.138510000000679) / 33632.103749999994761;
	inputs[1] = -1.0 + (inputs[1] - 47.000000000000000) / 26.000000000000000;
	inputs[2] = -1.0 + (inputs[2] - 31.000000000000000) / 41.500000000000000;
	inputs[3] = -1.0 + (inputs[3] - 35.000000000000000) / 33.500000000000000;
	inputs[4] = -1.0 + (inputs[4] - 42.000000000000000) / 57.000000000000000;
	inputs[5] = -1.0 + (inputs[5] - 25.000000000000000) / 17.500000000000000;
	inputs[6] = -1.0 + (inputs[6] - 35.000000000000000) / 87.000000000000000;
	inputs[7] = -1.0 + (inputs[7] - 31.000000000000000) / 42.500000000000000;
	inputs[8] = -1.0 + (inputs[8] - 28.000000000000000) / 32.000000000000000;
	inputs[9] = -1.0 + (inputs[9] - 36.000000000000000) / 32.000000000000000;
	inputs[10] = -1.0 + (inputs[10] - 44.000000000000000) / 86.500000000000000;
	inputs[11] = -1.0 + (inputs[11] - 15.000000000000000) / 5.000000000000000;
	inputs[12] = -1.0 + (inputs[12] - 31.000000000000000) / 7.500000000000000;
	inputs[13] = -1.0 + (inputs[13] - 38.000000000000000) / 4.500000000000000;
	inputs[14] = -1.0 + (inputs[14] - 21.000000000000000) / 4.000000000000000;
	inputs[15] = -1.0 + (inputs[15] - 22.000000000000000) / 8.500000000000000;
	inputs[16] = -1.0 + (inputs[16] - 24.000000000000000) / 7.000000000000000;
	inputs[17] = -1.0 + (inputs[17] - 32.000000000000000) / 48.000000000000000;
	inputs[18] = -1.0 + (inputs[18] - 42.000000000000000) / 23.500000000000000;
	inputs[19] = -1.0 + (inputs[19] - 23.000000000000000) / 12.500000000000000;
	inputs[20] = -1.0 + (inputs[20] - 24.000000000000000) / 55.000000000000000;
	inputs[21] = -1.0 + (inputs[21] - 26.000000000000000) / 45.000000000000000;
	inputs[22] = -1.0 + (inputs[22] - 21.000000000000000) / 15.500000000000000;
	inputs[23] = -1.0 + (inputs[23] - 20.000000000000000) / 15.500000000000000;
	inputs[24] = -1.0 + (inputs[24] - 12.000000000000000) / 4.000000000000000;
	inputs[25] = -1.0 + (inputs[25] - 3.000000000000000) / 1.000000000000000;
	inputs[26] = -1.0 + (inputs[26] - 32.000000000000000) / 103.000000000000000;
	inputs[27] = -1.0 + (inputs[27] - 20.000000000000000) / 81.500000000000000;
	inputs[28] = -1.0 + (inputs[28] - 61.000000000000000) / 66.000000000000000;
	inputs[29] = -1.0 + (inputs[29] - 51.000000000000000) / 31.500000000000000;
	inputs[30] = -1.0 + (inputs[30] - 30.000000000000000) / 17.500000000000000;
	inputs[31] = -1.0 + (inputs[31] - 34.000000000000000) / 10.500000000000000;
	inputs[32] = -1.0 + (inputs[32] - 10.000000000000000) / 16.500000000000000;
	inputs[33] = -1.0 + (inputs[33] - 50.000000000000000) / 111.500000000000000;
	inputs[34] = -1.0 + (inputs[34] - 6.000000000000000) / 3.500000000000000;
	inputs[35] = -1.0 + (inputs[35] - 97.000000000000000) / 170.000000000000000;
	inputs[36] = -1.0 + (inputs[36] - 1184.000000000000000) / 468.500000000000000;
	hiddenLayer1outputs[0] = *mw++;
	for(c = 0; c < 37; c++) hiddenLayer1outputs[0] += *mw++ * inputs[c];
	hiddenLayer1outputs[0] = 1.0 / (1.0 + exp(-hiddenLayer1outputs[0]));
	hiddenLayer1outputs[1] = *mw++;
	for(c = 0; c < 37; c++) hiddenLayer1outputs[1] += *mw++ * inputs[c];
	hiddenLayer1outputs[1] = 1.0 / (1.0 + exp(-hiddenLayer1outputs[1]));
	hiddenLayer1outputs[2] = *mw++;
	for(c = 0; c < 37; c++) hiddenLayer1outputs[2] += *mw++ * inputs[c];
	hiddenLayer1outputs[2] = 1.0 / (1.0 + exp(-hiddenLayer1outputs[2]));
	hiddenLayer1outputs[3] = *mw++;
	for(c = 0; c < 37; c++) hiddenLayer1outputs[3] += *mw++ * inputs[c];
	hiddenLayer1outputs[3] = 1.0 / (1.0 + exp(-hiddenLayer1outputs[3]));
	hiddenLayer1outputs[4] = *mw++;
	for(c = 0; c < 37; c++) hiddenLayer1outputs[4] += *mw++ * inputs[c];
	hiddenLayer1outputs[4] = 1.0 / (1.0 + exp(-hiddenLayer1outputs[4]));
	hiddenLayer1outputs[5] = *mw++;
	for(c = 0; c < 37; c++) hiddenLayer1outputs[5] += *mw++ * inputs[c];
	hiddenLayer1outputs[5] = 1.0 / (1.0 + exp(-hiddenLayer1outputs[5]));
	hiddenLayer1outputs[6] = *mw++;
	for(c = 0; c < 37; c++) hiddenLayer1outputs[6] += *mw++ * inputs[c];
	hiddenLayer1outputs[6] = 1.0 / (1.0 + exp(-hiddenLayer1outputs[6]));
	hiddenLayer1outputs[7] = *mw++;
	for(c = 0; c < 37; c++) hiddenLayer1outputs[7] += *mw++ * inputs[c];
	hiddenLayer1outputs[7] = 1.0 / (1.0 + exp(-hiddenLayer1outputs[7]));
	hiddenLayer1outputs[8] = *mw++;
	for(c = 0; c < 37; c++) hiddenLayer1outputs[8] += *mw++ * inputs[c];
	hiddenLayer1outputs[8] = 1.0 / (1.0 + exp(-hiddenLayer1outputs[8]));
	hiddenLayer1outputs[9] = *mw++;
	for(c = 0; c < 37; c++) hiddenLayer1outputs[9] += *mw++ * inputs[c];
	hiddenLayer1outputs[9] = 1.0 / (1.0 + exp(-hiddenLayer1outputs[9]));
	hiddenLayer1outputs[10] = *mw++;
	for(c = 0; c < 37; c++) hiddenLayer1outputs[10] += *mw++ * inputs[c];
	hiddenLayer1outputs[10] = 1.0 / (1.0 + exp(-hiddenLayer1outputs[10]));
	hiddenLayer1outputs[11] = *mw++;
	for(c = 0; c < 37; c++) hiddenLayer1outputs[11] += *mw++ * inputs[c];
	hiddenLayer1outputs[11] = 1.0 / (1.0 + exp(-hiddenLayer1outputs[11]));
	hiddenLayer1outputs[12] = *mw++;
	for(c = 0; c < 37; c++) hiddenLayer1outputs[12] += *mw++ * inputs[c];
	hiddenLayer1outputs[12] = 1.0 / (1.0 + exp(-hiddenLayer1outputs[12]));
	hiddenLayer1outputs[13] = *mw++;
	for(c = 0; c < 37; c++) hiddenLayer1outputs[13] += *mw++ * inputs[c];
	hiddenLayer1outputs[13] = 1.0 / (1.0 + exp(-hiddenLayer1outputs[13]));
	hiddenLayer1outputs[14] = *mw++;
	for(c = 0; c < 37; c++) hiddenLayer1outputs[14] += *mw++ * inputs[c];
	hiddenLayer1outputs[14] = 1.0 / (1.0 + exp(-hiddenLayer1outputs[14]));
	hiddenLayer1outputs[15] = *mw++;
	for(c = 0; c < 37; c++) hiddenLayer1outputs[15] += *mw++ * inputs[c];
	hiddenLayer1outputs[15] = 1.0 / (1.0 + exp(-hiddenLayer1outputs[15]));
	hiddenLayer1outputs[16] = *mw++;
	for(c = 0; c < 37; c++) hiddenLayer1outputs[16] += *mw++ * inputs[c];
	hiddenLayer1outputs[16] = 1.0 / (1.0 + exp(-hiddenLayer1outputs[16]));
	hiddenLayer1outputs[17] = *mw++;
	for(c = 0; c < 37; c++) hiddenLayer1outputs[17] += *mw++ * inputs[c];
	hiddenLayer1outputs[17] = 1.0 / (1.0 + exp(-hiddenLayer1outputs[17]));
	hiddenLayer1outputs[18] = *mw++;
	for(c = 0; c < 37; c++) hiddenLayer1outputs[18] += *mw++ * inputs[c];
	hiddenLayer1outputs[18] = 1.0 / (1.0 + exp(-hiddenLayer1outputs[18]));
	hiddenLayer1outputs[19] = *mw++;
	for(c = 0; c < 37; c++) hiddenLayer1outputs[19] += *mw++ * inputs[c];
	hiddenLayer1outputs[19] = 1.0 / (1.0 + exp(-hiddenLayer1outputs[19]));
	hiddenLayer1outputs[20] = *mw++;
	for(c = 0; c < 37; c++) hiddenLayer1outputs[20] += *mw++ * inputs[c];
	hiddenLayer1outputs[20] = 1.0 / (1.0 + exp(-hiddenLayer1outputs[20]));
	hiddenLayer1outputs[21] = *mw++;
	for(c = 0; c < 37; c++) hiddenLayer1outputs[21] += *mw++ * inputs[c];
	hiddenLayer1outputs[21] = 1.0 / (1.0 + exp(-hiddenLayer1outputs[21]));
	hiddenLayer1outputs[22] = *mw++;
	for(c = 0; c < 37; c++) hiddenLayer1outputs[22] += *mw++ * inputs[c];
	hiddenLayer1outputs[22] = 1.0 / (1.0 + exp(-hiddenLayer1outputs[22]));
	hiddenLayer1outputs[23] = *mw++;
	for(c = 0; c < 37; c++) hiddenLayer1outputs[23] += *mw++ * inputs[c];
	hiddenLayer1outputs[23] = 1.0 / (1.0 + exp(-hiddenLayer1outputs[23]));
	hiddenLayer1outputs[24] = *mw++;
	for(c = 0; c < 37; c++) hiddenLayer1outputs[24] += *mw++ * inputs[c];
	hiddenLayer1outputs[24] = 1.0 / (1.0 + exp(-hiddenLayer1outputs[24]));
	hiddenLayer1outputs[25] = *mw++;
	for(c = 0; c < 37; c++) hiddenLayer1outputs[25] += *mw++ * inputs[c];
	hiddenLayer1outputs[25] = 1.0 / (1.0 + exp(-hiddenLayer1outputs[25]));
	hiddenLayer1outputs[26] = *mw++;
	for(c = 0; c < 37; c++) hiddenLayer1outputs[26] += *mw++ * inputs[c];
	hiddenLayer1outputs[26] = 1.0 / (1.0 + exp(-hiddenLayer1outputs[26]));
	hiddenLayer1outputs[27] = *mw++;
	for(c = 0; c < 37; c++) hiddenLayer1outputs[27] += *mw++ * inputs[c];
	hiddenLayer1outputs[27] = 1.0 / (1.0 + exp(-hiddenLayer1outputs[27]));
	hiddenLayer1outputs[28] = *mw++;
	for(c = 0; c < 37; c++) hiddenLayer1outputs[28] += *mw++ * inputs[c];
	hiddenLayer1outputs[28] = 1.0 / (1.0 + exp(-hiddenLayer1outputs[28]));
	hiddenLayer1outputs[29] = *mw++;
	for(c = 0; c < 37; c++) hiddenLayer1outputs[29] += *mw++ * inputs[c];
	hiddenLayer1outputs[29] = 1.0 / (1.0 + exp(-hiddenLayer1outputs[29]));
	hiddenLayer1outputs[30] = *mw++;
	for(c = 0; c < 37; c++) hiddenLayer1outputs[30] += *mw++ * inputs[c];
	hiddenLayer1outputs[30] = 1.0 / (1.0 + exp(-hiddenLayer1outputs[30]));
	hiddenLayer1outputs[31] = *mw++;
	for(c = 0; c < 37; c++) hiddenLayer1outputs[31] += *mw++ * inputs[c];
	hiddenLayer1outputs[31] = 1.0 / (1.0 + exp(-hiddenLayer1outputs[31]));
	hiddenLayer1outputs[32] = *mw++;
	for(c = 0; c < 37; c++) hiddenLayer1outputs[32] += *mw++ * inputs[c];
	hiddenLayer1outputs[32] = 1.0 / (1.0 + exp(-hiddenLayer1outputs[32]));
	hiddenLayer1outputs[33] = *mw++;
	for(c = 0; c < 37; c++) hiddenLayer1outputs[33] += *mw++ * inputs[c];
	hiddenLayer1outputs[33] = 1.0 / (1.0 + exp(-hiddenLayer1outputs[33]));
	hiddenLayer1outputs[34] = *mw++;
	for(c = 0; c < 37; c++) hiddenLayer1outputs[34] += *mw++ * inputs[c];
	hiddenLayer1outputs[34] = 1.0 / (1.0 + exp(-hiddenLayer1outputs[34]));
	hiddenLayer1outputs[35] = *mw++;
	for(c = 0; c < 37; c++) hiddenLayer1outputs[35] += *mw++ * inputs[c];
	hiddenLayer1outputs[35] = 1.0 / (1.0 + exp(-hiddenLayer1outputs[35]));
	hiddenLayer1outputs[36] = *mw++;
	for(c = 0; c < 37; c++) hiddenLayer1outputs[36] += *mw++ * inputs[c];
	hiddenLayer1outputs[36] = 1.0 / (1.0 + exp(-hiddenLayer1outputs[36]));
	hiddenLayer2outputs[0] = *mw++;
	for(c = 0; c < 37; c++) hiddenLayer2outputs[0] += *mw++ * hiddenLayer1outputs[c];
	hiddenLayer2outputs[0] = 1.0 / (1.0 + exp(-hiddenLayer2outputs[0]));
	hiddenLayer2outputs[1] = *mw++;
	for(c = 0; c < 37; c++) hiddenLayer2outputs[1] += *mw++ * hiddenLayer1outputs[c];
	hiddenLayer2outputs[1] = 1.0 / (1.0 + exp(-hiddenLayer2outputs[1]));
	hiddenLayer2outputs[2] = *mw++;
	for(c = 0; c < 37; c++) hiddenLayer2outputs[2] += *mw++ * hiddenLayer1outputs[c];
	hiddenLayer2outputs[2] = 1.0 / (1.0 + exp(-hiddenLayer2outputs[2]));
	hiddenLayer2outputs[3] = *mw++;
	for(c = 0; c < 37; c++) hiddenLayer2outputs[3] += *mw++ * hiddenLayer1outputs[c];
	hiddenLayer2outputs[3] = 1.0 / (1.0 + exp(-hiddenLayer2outputs[3]));
	hiddenLayer2outputs[4] = *mw++;
	for(c = 0; c < 37; c++) hiddenLayer2outputs[4] += *mw++ * hiddenLayer1outputs[c];
	hiddenLayer2outputs[4] = 1.0 / (1.0 + exp(-hiddenLayer2outputs[4]));
	hiddenLayer2outputs[5] = *mw++;
	for(c = 0; c < 37; c++) hiddenLayer2outputs[5] += *mw++ * hiddenLayer1outputs[c];
	hiddenLayer2outputs[5] = 1.0 / (1.0 + exp(-hiddenLayer2outputs[5]));
	hiddenLayer2outputs[6] = *mw++;
	for(c = 0; c < 37; c++) hiddenLayer2outputs[6] += *mw++ * hiddenLayer1outputs[c];
	hiddenLayer2outputs[6] = 1.0 / (1.0 + exp(-hiddenLayer2outputs[6]));
	hiddenLayer2outputs[7] = *mw++;
	for(c = 0; c < 37; c++) hiddenLayer2outputs[7] += *mw++ * hiddenLayer1outputs[c];
	hiddenLayer2outputs[7] = 1.0 / (1.0 + exp(-hiddenLayer2outputs[7]));
	hiddenLayer2outputs[8] = *mw++;
	for(c = 0; c < 37; c++) hiddenLayer2outputs[8] += *mw++ * hiddenLayer1outputs[c];
	hiddenLayer2outputs[8] = 1.0 / (1.0 + exp(-hiddenLayer2outputs[8]));
	hiddenLayer2outputs[9] = *mw++;
	for(c = 0; c < 37; c++) hiddenLayer2outputs[9] += *mw++ * hiddenLayer1outputs[c];
	hiddenLayer2outputs[9] = 1.0 / (1.0 + exp(-hiddenLayer2outputs[9]));
	hiddenLayer2outputs[10] = *mw++;
	for(c = 0; c < 37; c++) hiddenLayer2outputs[10] += *mw++ * hiddenLayer1outputs[c];
	hiddenLayer2outputs[10] = 1.0 / (1.0 + exp(-hiddenLayer2outputs[10]));
	hiddenLayer2outputs[11] = *mw++;
	for(c = 0; c < 37; c++) hiddenLayer2outputs[11] += *mw++ * hiddenLayer1outputs[c];
	hiddenLayer2outputs[11] = 1.0 / (1.0 + exp(-hiddenLayer2outputs[11]));
	hiddenLayer2outputs[12] = *mw++;
	for(c = 0; c < 37; c++) hiddenLayer2outputs[12] += *mw++ * hiddenLayer1outputs[c];
	hiddenLayer2outputs[12] = 1.0 / (1.0 + exp(-hiddenLayer2outputs[12]));
	hiddenLayer2outputs[13] = *mw++;
	for(c = 0; c < 37; c++) hiddenLayer2outputs[13] += *mw++ * hiddenLayer1outputs[c];
	hiddenLayer2outputs[13] = 1.0 / (1.0 + exp(-hiddenLayer2outputs[13]));
	hiddenLayer2outputs[14] = *mw++;
	for(c = 0; c < 37; c++) hiddenLayer2outputs[14] += *mw++ * hiddenLayer1outputs[c];
	hiddenLayer2outputs[14] = 1.0 / (1.0 + exp(-hiddenLayer2outputs[14]));
	hiddenLayer2outputs[15] = *mw++;
	for(c = 0; c < 37; c++) hiddenLayer2outputs[15] += *mw++ * hiddenLayer1outputs[c];
	hiddenLayer2outputs[15] = 1.0 / (1.0 + exp(-hiddenLayer2outputs[15]));
	hiddenLayer2outputs[16] = *mw++;
	for(c = 0; c < 37; c++) hiddenLayer2outputs[16] += *mw++ * hiddenLayer1outputs[c];
	hiddenLayer2outputs[16] = 1.0 / (1.0 + exp(-hiddenLayer2outputs[16]));
	hiddenLayer2outputs[17] = *mw++;
	for(c = 0; c < 37; c++) hiddenLayer2outputs[17] += *mw++ * hiddenLayer1outputs[c];
	hiddenLayer2outputs[17] = 1.0 / (1.0 + exp(-hiddenLayer2outputs[17]));
	hiddenLayer2outputs[18] = *mw++;
	for(c = 0; c < 37; c++) hiddenLayer2outputs[18] += *mw++ * hiddenLayer1outputs[c];
	hiddenLayer2outputs[18] = 1.0 / (1.0 + exp(-hiddenLayer2outputs[18]));
	hiddenLayer2outputs[19] = *mw++;
	for(c = 0; c < 37; c++) hiddenLayer2outputs[19] += *mw++ * hiddenLayer1outputs[c];
	hiddenLayer2outputs[19] = 1.0 / (1.0 + exp(-hiddenLayer2outputs[19]));
	hiddenLayer2outputs[20] = *mw++;
	for(c = 0; c < 37; c++) hiddenLayer2outputs[20] += *mw++ * hiddenLayer1outputs[c];
	hiddenLayer2outputs[20] = 1.0 / (1.0 + exp(-hiddenLayer2outputs[20]));
	hiddenLayer2outputs[21] = *mw++;
	for(c = 0; c < 37; c++) hiddenLayer2outputs[21] += *mw++ * hiddenLayer1outputs[c];
	hiddenLayer2outputs[21] = 1.0 / (1.0 + exp(-hiddenLayer2outputs[21]));
	hiddenLayer2outputs[22] = *mw++;
	for(c = 0; c < 37; c++) hiddenLayer2outputs[22] += *mw++ * hiddenLayer1outputs[c];
	hiddenLayer2outputs[22] = 1.0 / (1.0 + exp(-hiddenLayer2outputs[22]));
	hiddenLayer2outputs[23] = *mw++;
	for(c = 0; c < 37; c++) hiddenLayer2outputs[23] += *mw++ * hiddenLayer1outputs[c];
	hiddenLayer2outputs[23] = 1.0 / (1.0 + exp(-hiddenLayer2outputs[23]));
	hiddenLayer2outputs[24] = *mw++;
	for(c = 0; c < 37; c++) hiddenLayer2outputs[24] += *mw++ * hiddenLayer1outputs[c];
	hiddenLayer2outputs[24] = 1.0 / (1.0 + exp(-hiddenLayer2outputs[24]));
	hiddenLayer2outputs[25] = *mw++;
	for(c = 0; c < 37; c++) hiddenLayer2outputs[25] += *mw++ * hiddenLayer1outputs[c];
	hiddenLayer2outputs[25] = 1.0 / (1.0 + exp(-hiddenLayer2outputs[25]));
	hiddenLayer2outputs[26] = *mw++;
	for(c = 0; c < 37; c++) hiddenLayer2outputs[26] += *mw++ * hiddenLayer1outputs[c];
	hiddenLayer2outputs[26] = 1.0 / (1.0 + exp(-hiddenLayer2outputs[26]));
	hiddenLayer2outputs[27] = *mw++;
	for(c = 0; c < 37; c++) hiddenLayer2outputs[27] += *mw++ * hiddenLayer1outputs[c];
	hiddenLayer2outputs[27] = 1.0 / (1.0 + exp(-hiddenLayer2outputs[27]));
	hiddenLayer2outputs[28] = *mw++;
	for(c = 0; c < 37; c++) hiddenLayer2outputs[28] += *mw++ * hiddenLayer1outputs[c];
	hiddenLayer2outputs[28] = 1.0 / (1.0 + exp(-hiddenLayer2outputs[28]));
	hiddenLayer2outputs[29] = *mw++;
	for(c = 0; c < 37; c++) hiddenLayer2outputs[29] += *mw++ * hiddenLayer1outputs[c];
	hiddenLayer2outputs[29] = 1.0 / (1.0 + exp(-hiddenLayer2outputs[29]));
	hiddenLayer2outputs[30] = *mw++;
	for(c = 0; c < 37; c++) hiddenLayer2outputs[30] += *mw++ * hiddenLayer1outputs[c];
	hiddenLayer2outputs[30] = 1.0 / (1.0 + exp(-hiddenLayer2outputs[30]));
	hiddenLayer2outputs[31] = *mw++;
	for(c = 0; c < 37; c++) hiddenLayer2outputs[31] += *mw++ * hiddenLayer1outputs[c];
	hiddenLayer2outputs[31] = 1.0 / (1.0 + exp(-hiddenLayer2outputs[31]));
	hiddenLayer2outputs[32] = *mw++;
	for(c = 0; c < 37; c++) hiddenLayer2outputs[32] += *mw++ * hiddenLayer1outputs[c];
	hiddenLayer2outputs[32] = 1.0 / (1.0 + exp(-hiddenLayer2outputs[32]));
	hiddenLayer2outputs[33] = *mw++;
	for(c = 0; c < 37; c++) hiddenLayer2outputs[33] += *mw++ * hiddenLayer1outputs[c];
	hiddenLayer2outputs[33] = 1.0 / (1.0 + exp(-hiddenLayer2outputs[33]));
	hiddenLayer2outputs[34] = *mw++;
	for(c = 0; c < 37; c++) hiddenLayer2outputs[34] += *mw++ * hiddenLayer1outputs[c];
	hiddenLayer2outputs[34] = 1.0 / (1.0 + exp(-hiddenLayer2outputs[34]));
	hiddenLayer2outputs[35] = *mw++;
	for(c = 0; c < 37; c++) hiddenLayer2outputs[35] += *mw++ * hiddenLayer1outputs[c];
	hiddenLayer2outputs[35] = 1.0 / (1.0 + exp(-hiddenLayer2outputs[35]));
	hiddenLayer2outputs[36] = *mw++;
	for(c = 0; c < 37; c++) hiddenLayer2outputs[36] += *mw++ * hiddenLayer1outputs[c];
	hiddenLayer2outputs[36] = 1.0 / (1.0 + exp(-hiddenLayer2outputs[36]));
	outputs[0] = *mw++;
	for(c = 0; c < 37; c++) outputs[0] += *mw++ * hiddenLayer2outputs[c];
	outputs[0] = 1.0 / (1.0 + exp(-outputs[0]));
	outputs[1] = *mw++;
	for(c = 0; c < 37; c++) outputs[1] += *mw++ * hiddenLayer2outputs[c];
	outputs[1] = 1.0 / (1.0 + exp(-outputs[1]));
	outputs[2] = *mw++;
	for(c = 0; c < 37; c++) outputs[2] += *mw++ * hiddenLayer2outputs[c];
	outputs[2] = 1.0 / (1.0 + exp(-outputs[2]));
	outputs[3] = *mw++;
	for(c = 0; c < 37; c++) outputs[3] += *mw++ * hiddenLayer2outputs[c];
	outputs[3] = 1.0 / (1.0 + exp(-outputs[3]));
	outputs[4] = *mw++;
	for(c = 0; c < 37; c++) outputs[4] += *mw++ * hiddenLayer2outputs[c];
	outputs[4] = 1.0 / (1.0 + exp(-outputs[4]));
	outputs[5] = *mw++;
	for(c = 0; c < 37; c++) outputs[5] += *mw++ * hiddenLayer2outputs[c];
	outputs[5] = 1.0 / (1.0 + exp(-outputs[5]));
	outputs[6] = *mw++;
	for(c = 0; c < 37; c++) outputs[6] += *mw++ * hiddenLayer2outputs[c];
	outputs[6] = 1.0 / (1.0 + exp(-outputs[6]));
	outputs[7] = *mw++;
	for(c = 0; c < 37; c++) outputs[7] += *mw++ * hiddenLayer2outputs[c];
	outputs[7] = 1.0 / (1.0 + exp(-outputs[7]));
	outputs[8] = *mw++;
	for(c = 0; c < 37; c++) outputs[8] += *mw++ * hiddenLayer2outputs[c];
	outputs[8] = 1.0 / (1.0 + exp(-outputs[8]));
	outputs[9] = *mw++;
	for(c = 0; c < 37; c++) outputs[9] += *mw++ * hiddenLayer2outputs[c];
	outputs[9] = 1.0 / (1.0 + exp(-outputs[9]));
	outputs[10] = *mw++;
	for(c = 0; c < 37; c++) outputs[10] += *mw++ * hiddenLayer2outputs[c];
	outputs[10] = 1.0 / (1.0 + exp(-outputs[10]));
	outputs[11] = *mw++;
	for(c = 0; c < 37; c++) outputs[11] += *mw++ * hiddenLayer2outputs[c];
	outputs[11] = 1.0 / (1.0 + exp(-outputs[11]));
	outputs[12] = *mw++;
	for(c = 0; c < 37; c++) outputs[12] += *mw++ * hiddenLayer2outputs[c];
	outputs[12] = 1.0 / (1.0 + exp(-outputs[12]));
	outputs[13] = *mw++;
	for(c = 0; c < 37; c++) outputs[13] += *mw++ * hiddenLayer2outputs[c];
	outputs[13] = 1.0 / (1.0 + exp(-outputs[13]));
	outputs[14] = *mw++;
	for(c = 0; c < 37; c++) outputs[14] += *mw++ * hiddenLayer2outputs[c];
	outputs[14] = 1.0 / (1.0 + exp(-outputs[14]));
	outputs[15] = *mw++;
	for(c = 0; c < 37; c++) outputs[15] += *mw++ * hiddenLayer2outputs[c];
